{"learner":{"attributes":{"scikit_learn":"{\"_estimator_type\": \"classifier\"}"},"feature_names":["SeniorCitizen","Partner","Dependents","tenure","PhoneService","PaperlessBilling","MonthlyCharges","TotalCharges","gender_Male","MultipleLines_No phone service","MultipleLines_Yes","InternetService_Fiber optic","InternetService_No","OnlineSecurity_No internet service","OnlineSecurity_Yes","OnlineBackup_No internet service","OnlineBackup_Yes","DeviceProtection_No internet service","DeviceProtection_Yes","TechSupport_No internet service","TechSupport_Yes","StreamingTV_No internet service","StreamingTV_Yes","StreamingMovies_No internet service","StreamingMovies_Yes","Contract_One year","Contract_Two year","PaymentMethod_Credit card (automatic)","PaymentMethod_Electronic check","PaymentMethod_Mailed check"],"feature_types":["int","int","int","float","int","int","float","float","i","i","i","i","i","i","i","i","i","i","i","i","i","i","i","i","i","i","i","i","i","i"],"gradient_booster":{"model":{"gbtree_model_param":{"num_parallel_tree":"1","num_trees":"100"},"iteration_indptr":[0,1,2,3,4,5,6,7,8,9,10,11,12,13,14,15,16,17,18,19,20,21,22,23,24,25,26,27,28,29,30,31,32,33,34,35,36,37,38,39,40,41,42,43,44,45,46,47,48,49,50,51,52,53,54,55,56,57,58,59,60,61,62,63,64,65,66,67,68,69,70,71,72,73,74,75,76,77,78,79,80,81,82,83,84,85,86,87,88,89,90,91,92,93,94,95,96,97,98,99,100],"tree_info":[0,0,0,0,0,0,0,0,0,0,0,0,0,0,0,0,0,0,0,0,0,0,0,0,0,0,0,0,0,0,0,0,0,0,0,0,0,0,0,0,0,0,0,0,0,0,0,0,0,0,0,0,0,0,0,0,0,0,0,0,0,0,0,0,0,0,0,0,0,0,0,0,0,0,0,0,0,0,0,0,0,0,0,0,0,0,0,0,0,0,0,0,0,0,0,0,0,0,0,0],"trees":[{"base_weights":[-3.75088E-9,3.4952685E-1,-1.6832975E0,7.0433754E-1,-1.0117791E0,-1.8669633E0,-1.1359032E0,7.548522E-2,1.0964252E0,-1.5809091E0,-4.460496E-1,-5.705322E-1,-1.3395623E0,-8.45649E-1,-1.7393025E0,6.619513E-1,-4.9021778E-1,1.4414098E0,6.6220045E-1,-1.6963356E0,-1.0500689E0,-8.7157637E-1,-1.3649678E-1,-2.3293938E-1,-5.043285E-1,6.9175774E-1,-9.279236E-1,-9.804599E-1,-5.7328045E-1,9.8245704E-1,3.0251176E-3,9.839293E-2,-7.045058E-1,1.7563252E0,1.3294533E0,2.3639613E-1,9.4257724E-1,-2.8243312E-1,-1.7285268E0,-1.6091962E0,-7.066466E-1,-7.3867604E-2,-9.7403306E-1,1.0887178E-1,-7.4574697E-1,2.5018072E-1,-3.3330262E-1,-1.4593456E-2,3.4803888E-1,-1.3625449E0,-5.15839E-1,-4.856695E-1,1.2095997E-1,3.3271202E-1,6.538006E-2,1.5394811E-1,-2.3755898E-1,2.769851E-1,-3.4186207E-2,-1.437444E-1,-3.5241544E-1,5.332688E-1,1.2095997E-1,3.2937413E-1,4.5770624E-1,1.19575284E-1,-1.4048828E-1,3.1430405E-1,-3.0284306E-2,1.8351643E-1,-3.599668E-1,-5.4458463E-1,-4.402729E-1,-5.399502E-1,-1.5219331E-1,1.1410288E-1,-2.7312905E-1,-2.9538184E-1,1.9685684E-1,-4.243325E-1,-2.3993453E-1,-3.099736E-3,2.988636E-1,-2.7569672E-1,2.0752732E-1,2.5796115E-1,-1.1412578E-1,-1.7731784E-1,-4.918482E-1,1.7002772E-1,-2.926499E-1],"categories":[],"categories_nodes":[],"categories_segments":[],"categories_sizes":[],"default_left":[0,0,0,0,0,0,0,0,0,0,0,0,0,0,0,0,0,0,0,0,0,0,0,0,0,0,0,0,0,0,0,0,0,0,0,0,0,0,0,0,0,0,0,0,0,0,0,0,0,0,0,0,0,0,0,0,0,0,0,0,0,0,0,0,0,0,0,0,0,0,0,0,0,0,0,0,0,0,0,0,0,0,0,0,0,0,0,0,0,0,0],"id":0,"left_children":[1,3,5,7,9,11,13,15,17,19,21,-1,23,25,27,29,31,33,35,37,39,41,43,45,-1,47,49,51,-1,53,55,57,59,61,63,65,67,69,71,73,75,77,79,81,83,85,-1,-1,-1,87,89,-1,-1,-1,-1,-1,-1,-1,-1,-1,-1,-1,-1,-1,-1,-1,-1,-1,-1,-1,-1,-1,-1,-1,-1,-1,-1,-1,-1,-1,-1,-1,-1,-1,-1,-1,-1,-1,-1,-1,-1],"loss_changes":[1.2160232E3,8.273478E2,3.360736E1,3.347984E2,1.13355316E2,2.309204E0,1.4612923E1,1.7373148E2,1.243548E2,9.015167E0,2.346614E1,0E0,7.0774193E0,8.731316E0,1.8879242E0,5.4284462E1,3.369915E1,1.4070251E1,4.4212738E1,6.0253906E0,5.409794E0,6.075447E0,1.5753147E1,2.7475183E0,0E0,1.3816766E0,1.024588E1,7.172992E0,0E0,1.6494171E1,3.492296E1,1.2723507E1,2.0162628E1,2.700714E0,1.4108643E1,1.7228909E1,2.4683487E1,4.3279543E0,4.9920654E-1,1.6476727E0,5.4199905E0,7.057665E0,3.9776192E0,8.007808E0,8.163239E0,2.0847268E0,0E0,0E0,0E0,5.257721E0,1.6968933E1,0E0,0E0,0E0,0E0,0E0,0E0,0E0,0E0,0E0,0E0,0E0,0E0,0E0,0E0,0E0,0E0,0E0,0E0,0E0,0E0,0E0,0E0,0E0,0E0,0E0,0E0,0E0,0E0,0E0,0E0,0E0,0E0,0E0,0E0,0E0,0E0,0E0,0E0,0E0,0E0],"parents":[2147483647,0,0,1,1,2,2,3,3,4,4,5,5,6,6,7,7,8,8,9,9,10,10,12,12,13,13,14,14,15,15,16,16,17,17,18,18,19,19,20,20,21,21,22,22,23,23,25,25,26,26,27,27,29,29,30,30,31,31,32,32,33,33,34,34,35,35,36,36,37,37,38,38,39,39,40,40,41,41,42,42,43,43,44,44,45,45,49,49,50,50],"right_children":[2,4,6,8,10,12,14,16,18,20,22,-1,24,26,28,30,32,34,36,38,40,42,44,46,-1,48,50,52,-1,54,56,58,60,62,64,66,68,70,72,74,76,78,80,82,84,86,-1,-1,-1,88,90,-1,-1,-1,-1,-1,-1,-1,-1,-1,-1,-1,-1,-1,-1,-1,-1,-1,-1,-1,-1,-1,-1,-1,-1,-1,-1,-1,-1,-1,-1,-1,-1,-1,-1,-1,-1,-1,-1,-1,-1],"split_conditions":[1E0,1E0,9.490742E-1,1E0,1E0,1E0,1.6125733E0,-1.0765282E0,-6.690886E-1,1E0,9.640324E-1,-5.705322E-1,1E0,9.773286E-1,1.311395E0,1E0,1E0,-9.5508283E-1,1E0,-9.896278E-1,1E0,-4.94814E-1,1.9004148E0,1E0,-5.043285E-1,1.4495974E0,1.3645798E0,1.2748306E0,-5.7328045E-1,-3.173867E-1,-9.9659854E-1,-8.495508E-1,-3.8388088E-1,1E0,6.183318E-1,7.5695E-1,9.606698E-1,-1.4924363E0,-1.4952244E-1,8.0946434E-1,-7.913205E-1,-6.258026E-1,1.8264966E-2,1.8055595E0,2.5054593E0,1E0,-3.3330262E-1,-1.4593456E-2,3.4803888E-1,1.412285E0,1.4692872E0,-4.856695E-1,1.2095997E-1,3.3271202E-1,6.538006E-2,1.5394811E-1,-2.3755898E-1,2.769851E-1,-3.4186207E-2,-1.437444E-1,-3.5241544E-1,5.332688E-1,1.2095997E-1,3.2937413E-1,4.5770624E-1,1.19575284E-1,-1.4048828E-1,3.1430405E-1,-3.0284306E-2,1.8351643E-1,-3.599668E-1,-5.4458463E-1,-4.402729E-1,-5.399502E-1,-1.5219331E-1,1.1410288E-1,-2.7312905E-1,-2.9538184E-1,1.9685684E-1,-4.243325E-1,-2.3993453E-1,-3.099736E-3,2.988636E-1,-2.7569672E-1,2.0752732E-1,2.5796115E-1,-1.1412578E-1,-1.7731784E-1,-4.918482E-1,1.7002772E-1,-2.926499E-1],"split_indices":[26,25,6,11,24,28,3,3,3,28,6,0,4,6,6,12,4,7,28,7,8,7,7,2,0,3,6,6,0,6,7,7,3,20,6,3,3,6,6,6,3,7,7,7,7,14,0,0,0,7,6,0,0,0,0,0,0,0,0,0,0,0,0,0,0,0,0,0,0,0,0,0,0,0,0,0,0,0,0,0,0,0,0,0,0,0,0,0,0,0,0],"split_type":[0,0,0,0,0,0,0,0,0,0,0,0,0,0,0,0,0,0,0,0,0,0,0,0,0,0,0,0,0,0,0,0,0,0,0,0,0,0,0,0,0,0,0,0,0,0,0,0,0,0,0,0,0,0,0,0,0,0,0,0,0,0,0,0,0,0,0,0,0,0,0,0,0,0,0,0,0,0,0,0,0,0,0,0,0,0,0,0,0,0,0],"sum_hessian":[2.0648096E3,1.7104392E3,3.5437033E2,1.3571852E3,3.53254E2,2.635361E2,9.083422E1,5.2167914E2,8.35506E2,1.752032E2,1.780508E2,2.4477406E2,1.8762032E1,6.295321E1,2.7881016E1,2.5605548E2,2.6562366E2,4.6430414E2,3.7120187E2,1.4210762E2,3.309559E1,7.421524E1,1.0383556E2,4.821524E0,1.3940508E1,2.8215241E0,6.0131683E1,6.381016E0,2.15E1,1.719345E2,8.412099E1,7.103743E1,1.9458623E2,1.1792179E2,3.4638235E2,1.4811096E2,2.2309091E2,3.381016E0,1.3872661E2,1.1190508E1,2.190508E1,8.643048E0,6.557219E1,7.4608955E1,2.9226604E1,3.5715241E0,1.25E0,1.440508E0,1.381016E0,2.8143047E1,3.1988636E1,4.25E0,2.131016E0,1.4712433E2,2.481016E1,5.1453876E1,3.266711E1,1.385762E1,5.7179813E1,1.3290709E2,6.1679146E1,1.1579077E2,2.131016E0,1.6192245E2,1.8445988E2,1.2075334E2,2.735762E1,2.026738E2,2.0417112E1,1.881016E0,1.5E0,9.964305E1,3.9083557E1,9E0,2.190508E0,3.3215241E0,1.8583555E1,3.690508E0,4.95254E0,1.6571524E1,4.9000668E1,6.664439E1,7.964572E0,2.640508E1,2.8215241E0,1.631016E0,1.940508E0,8.262032E0,1.9881016E1,9.464572E0,2.2524063E1],"tree_param":{"num_deleted":"0","num_feature":"30","num_nodes":"91","size_leaf_vector":"1"}},{"base_weights":[-2.8661047E-3,2.5236422E-1,-1.2832599E0,5.103302E-1,-7.465341E-1,-1.4334694E0,-8.514684E-1,5.411741E-2,7.999632E-1,-1.1952453E0,-3.2032055E-1,-4.3824854E-1,-1.0280051E0,-6.203077E-1,-1.3528053E0,4.7507894E-1,-3.4868863E-1,1.0510503E0,4.4915825E-1,-1.2870132E0,-7.872108E-1,-5.450784E-1,4.099889E-2,-1.9819333E-1,-1.2939408E0,-1.0869614E0,-4.0688205E-1,-7.0076495E-1,-4.5465282E-1,-4.6314593E-2,6.9743586E-1,7.2862454E-2,-5.035991E-1,1.3351226E0,9.6074665E-1,5.8781934E-1,-1.0386453E-1,-1.0216525E0,-1.4244379E0,-9.919591E-1,-1.99615E-1,-2.9663068E-1,-8.8145626E-1,3.1105688E-1,-4.3361652E-1,2.0855404E-1,-2.8254628E-1,-4.32639E-1,-7.59265E-1,-1.2681787E0,-3.229267E-1,1.483474E-1,-6.566677E-1,1.9439705E-1,-3.6902064E-1,9.969235E-2,-2.331966E-1,2.3634945E-1,1.3281253E-2,-8.388249E-2,1.4882347E-1,-1.0153711E-1,-2.5714767E-1,4.0557587E-1,9.653076E-2,2.2955358E-1,3.3727536E-1,2.8532665E-2,2.2497696E-1,5.0896738E-2,-2.2318967E-1,-3.460431E-1,1.486149E-1,-4.567113E-1,-3.4734687E-1,-2.7135627E-3,-3.59514E-1,-2.919835E-1,2.0224382E-1,1.11235335E-1,-1.4348276E-1,-3.0616117E-1,3.8522832E-2,-2.267021E-2,1.9082762E-1,-1.6226387E-2,-4.4822595E-1,2.1241386E-1,-9.17535E-2,1.3729262E-1,-3.6238855E-1,-4.267558E-1,3.7325706E-2,3.694166E-1,-3.670954E-1,2.2159262E-1,-1.0646102E-1,-9.8709196E-2,-4.002231E-1,-2.6218235E-1,3.2770836E-1],"categories":[],"categories_nodes":[],"categories_segments":[],"categories_sizes":[],"default_left":[0,0,0,0,0,0,0,0,0,0,0,0,0,0,0,0,0,0,0,0,0,0,0,0,0,0,0,0,0,0,0,0,0,0,0,0,0,0,0,0,0,0,0,0,0,0,0,0,0,0,0,0,0,0,0,0,0,0,0,0,0,0,0,0,0,0,0,0,0,0,0,0,0,0,0,0,0,0,0,0,0,0,0,0,0,0,0,0,0,0,0,0,0,0,0,0,0,0,0,0,0],"id":1,"left_children":[1,3,5,7,9,11,13,15,17,19,21,-1,23,25,27,29,31,33,35,37,39,41,43,45,47,49,51,53,-1,55,57,59,61,63,65,67,69,71,73,75,77,79,81,83,85,87,-1,-1,89,91,93,95,97,99,-1,-1,-1,-1,-1,-1,-1,-1,-1,-1,-1,-1,-1,-1,-1,-1,-1,-1,-1,-1,-1,-1,-1,-1,-1,-1,-1,-1,-1,-1,-1,-1,-1,-1,-1,-1,-1,-1,-1,-1,-1,-1,-1,-1,-1,-1,-1],"loss_changes":[6.524351E2,4.293307E2,2.030127E1,1.7484698E2,6.5036545E1,1.2129822E0,9.37117E0,8.750162E1,7.083301E1,5.2127686E0,1.4380007E1,0E0,3.901987E0,5.7473316E0,1.7978325E0,2.9279991E1,1.7262287E1,1.0801636E1,2.6091003E1,3.4373627E0,3.7846622E0,8.853497E0,8.944417E0,1.9369097E0,2.141571E-2,2.2079926E0,6.2332788E0,3.6711323E0,0E0,2.1392866E1,1.0410812E1,1.0843001E1,1.0979996E1,1.4553986E0,1.0683563E1,2.1617523E1,1.2189096E1,1.0432972E1,4.7904968E-1,4.9189625E0,7.285077E0,7.965308E0,6.5675774E0,5.6261444E0,1.0119324E1,1.3826414E0,0E0,0E0,3.375483E0,3.3878956E0,8.459202E0,4.582209E0,6.3744373E0,4.365107E0,0E0,0E0,0E0,0E0,0E0,0E0,0E0,0E0,0E0,0E0,0E0,0E0,0E0,0E0,0E0,0E0,0E0,0E0,0E0,0E0,0E0,0E0,0E0,0E0,0E0,0E0,0E0,0E0,0E0,0E0,0E0,0E0,0E0,0E0,0E0,0E0,0E0,0E0,0E0,0E0,0E0,0E0,0E0,0E0,0E0,0E0,0E0],"parents":[2147483647,0,0,1,1,2,2,3,3,4,4,5,5,6,6,7,7,8,8,9,9,10,10,12,12,13,13,14,14,15,15,16,16,17,17,18,18,19,19,20,20,21,21,22,22,23,23,24,24,25,25,26,26,27,27,29,29,30,30,31,31,32,32,33,33,34,34,35,35,36,36,37,37,38,38,39,39,40,40,41,41,42,42,43,43,44,44,45,45,48,48,49,49,50,50,51,51,52,52,53,53],"right_children":[2,4,6,8,10,12,14,16,18,20,22,-1,24,26,28,30,32,34,36,38,40,42,44,46,48,50,52,54,-1,56,58,60,62,64,66,68,70,72,74,76,78,80,82,84,86,88,-1,-1,90,92,94,96,98,100,-1,-1,-1,-1,-1,-1,-1,-1,-1,-1,-1,-1,-1,-1,-1,-1,-1,-1,-1,-1,-1,-1,-1,-1,-1,-1,-1,-1,-1,-1,-1,-1,-1,-1,-1,-1,-1,-1,-1,-1,-1,-1,-1,-1,-1,-1,-1],"split_conditions":[1E0,1E0,9.490742E-1,1E0,1E0,1E0,1.6125733E0,-1.0765282E0,-5.876007E-1,1E0,1.2199838E0,-4.3824854E-1,1E0,1E0,1E0,-1.4591959E0,1E0,-9.5508283E-1,1E0,-2.61649E-1,6.548963E-1,1E0,1.9437174E0,1E0,1.3203857E0,1.5310853E0,1E0,1.311395E0,-4.5465282E-1,-9.9192196E-1,-9.18376E-1,1E0,-3.8388088E-1,1E0,6.183318E-1,1E0,1.0310991E0,-3.640681E-1,1E0,-7.913205E-1,1E0,-2.61649E-1,1.3273655E0,7.9769397E-1,1E0,1E0,-2.8254628E-1,-4.32639E-1,5.2858263E-1,2.2485118E0,1.1202625E0,1E0,1E0,1.2083497E0,-3.6902064E-1,9.969235E-2,-2.331966E-1,2.3634945E-1,1.3281253E-2,-8.388249E-2,1.4882347E-1,-1.0153711E-1,-2.5714767E-1,4.0557587E-1,9.653076E-2,2.2955358E-1,3.3727536E-1,2.8532665E-2,2.2497696E-1,5.0896738E-2,-2.2318967E-1,-3.460431E-1,1.486149E-1,-4.567113E-1,-3.4734687E-1,-2.7135627E-3,-3.59514E-1,-2.919835E-1,2.0224382E-1,1.11235335E-1,-1.4348276E-1,-3.0616117E-1,3.8522832E-2,-2.267021E-2,1.9082762E-1,-1.6226387E-2,-4.4822595E-1,2.1241386E-1,-9.17535E-2,1.3729262E-1,-3.6238855E-1,-4.267558E-1,3.7325706E-2,3.694166E-1,-3.670954E-1,2.2159262E-1,-1.0646102E-1,-9.8709196E-2,-4.002231E-1,-2.6218235E-1,3.2770836E-1],"split_indices":[26,25,6,11,24,28,3,3,3,28,6,0,4,5,14,6,4,7,14,3,6,14,7,2,7,3,16,6,0,7,7,22,3,20,6,10,7,7,18,3,2,3,3,3,2,14,0,0,6,7,6,1,27,6,0,0,0,0,0,0,0,0,0,0,0,0,0,0,0,0,0,0,0,0,0,0,0,0,0,0,0,0,0,0,0,0,0,0,0,0,0,0,0,0,0,0,0,0,0,0,0],"split_type":[0,0,0,0,0,0,0,0,0,0,0,0,0,0,0,0,0,0,0,0,0,0,0,0,0,0,0,0,0,0,0,0,0,0,0,0,0,0,0,0,0,0,0,0,0,0,0,0,0,0,0,0,0,0,0,0,0,0,0,0,0,0,0,0,0,0,0,0,0,0,0,0,0,0,0,0,0,0,0,0,0,0,0,0,0,0,0,0,0,0,0,0,0,0,0,0,0,0,0,0,0],"sum_hessian":[1.9944731E3,1.6636488E3,3.3082443E2,1.3225807E3,3.4106802E2,2.437204E2,8.710404E1,5.1405634E2,8.085244E2,1.6526999E2,1.7579803E2,2.2587637E2,1.7844027E1,6.1147118E1,2.5956926E1,2.5127565E2,2.627807E2,4.7007443E2,3.3844995E2,1.3316637E2,3.2103615E1,1.0806678E2,6.773125E1,4.754281E0,1.3089745E1,1.7905014E1,4.3242104E1,6.243391E0,1.9713535E1,7.535985E1,1.759158E2,7.075847E1,1.9202223E2,1.1006222E2,3.6001224E2,2.7055096E2,6.789899E1,4.8312153E1,8.485422E1,2.3297438E1,8.806179E0,6.3239853E1,4.4826927E1,4.338795E1,2.4343298E1,3.5384011E0,1.21588E0,8.920233E0,4.1695123E0,1.393904E1,3.965973E0,1.3543468E1,2.9698637E1,2.5550332E0,3.6883578E0,5.0005238E1,2.5354607E1,1.5434837E2,2.1567427E1,3.8791065E1,3.1967403E1,1.3222115E2,5.980109E1,1.0793896E2,2.1232636E0,1.665187E2,1.9349353E2,6.736956E1,2.031814E2,4.8086285E1,1.9812702E1,4.4670143E1,3.6420097E0,5.861409E1,2.624013E1,4.2246666E0,1.9072771E1,4.610214E0,4.1959643E0,1.3306562E1,4.9933292E1,3.9391304E1,5.435622E0,2.0167059E1,2.3220892E1,1.8701334E1,5.6419644E0,1.6042185E0,1.9341828E0,1.1178535E0,3.0516586E0,1.2528978E1,1.4100623E0,1.3203797E0,2.6455932E0,6.017204E0,7.5262647E0,2.1018505E1,8.680132E0,1.1790411E0,1.3759921E0],"tree_param":{"num_deleted":"0","num_feature":"30","num_nodes":"101","size_leaf_vector":"1"}},{"base_weights":[-6.8975505E-3,1.8751341E-1,-1.0677165E0,3.8128442E-1,-5.765508E-1,-1.2171146E0,-6.7373866E-1,3.89568E-2,6.06318E-1,-9.714667E-1,-2.3498973E-1,-1.24285E0,-8.569279E-1,-4.7332796E-1,-1.1555202E0,2.8386146E-1,-3.3061448E-1,8.535812E-1,3.4368807E-1,-5.3306544E-1,-1.0426927E0,-5.924691E-1,-6.9592044E-2,-3.7939796E-1,-8.801935E-1,-1.7223543E-1,-1.0944049E0,-4.1563845E-1,-3.729391E-1,-5.9401274E-1,-3.9010456E-1,9.6340165E-2,6.411552E-1,-4.706679E-1,4.9188903E-1,9.00271E-1,3.4641838E-1,3.9572414E-2,5.5039525E-1,-7.1012217E-1,3.6907452E-1,-1.1720507E0,-7.4647677E-1,-6.6685957E-1,4.038444E-1,9.313169E-1,-1.2475068E-1,-3.4867328E-1,-3.6087564E-1,1.7661676E-1,-2.459763E-1,-3.694508E-1,-6.2418145E-1,3.5799095E-1,-5.4923636E-1,1.6057184E-1,-3.183029E-1,1.12181276E-1,-3.3176757E-2,1.4554545E-1,3.3181685E-1,-1.8216163E-1,-5.2066963E-2,2.1995382E-1,-3.6586115E-1,3.0490643E-1,2.142913E-1,-6.548551E-2,3.417253E-1,-4.739985E-2,1.4224593E-1,1.7846774E-1,-2.2429039E-1,4.5042185E-4,-3.3901894E-1,2.6917854E-1,-7.4401505E-2,-3.595013E-1,2.453063E-3,1.4906055E-1,-2.3874725E-1,-1.2185695E-1,-3.6547416E-1,-7.431292E-2,4.2246506E-1,-3.8902895E-3,-1.3545156E-1,-3.261027E-1,3.1200394E-1,1.787997E-1,-1.02476954E-1,1.3126479E-1,-3.1748852E-1,1.9553526E-1,-2.9833958E-1,2.4298696E-1,-1.9420196E-1,-2.3053513E-1,2.7912685E-1],"categories":[],"categories_nodes":[],"categories_segments":[],"categories_sizes":[],"default_left":[0,0,0,0,0,0,0,0,0,0,0,0,0,0,0,0,0,0,0,0,0,0,0,0,0,0,0,0,0,0,0,0,0,0,0,0,0,0,0,0,0,0,0,0,0,0,0,0,0,0,0,0,0,0,0,0,0,0,0,0,0,0,0,0,0,0,0,0,0,0,0,0,0,0,0,0,0,0,0,0,0,0,0,0,0,0,0,0,0,0,0,0,0,0,0,0,0,0,0],"id":2,"left_children":[1,3,5,7,9,11,13,15,17,19,21,23,25,27,29,31,33,35,37,39,41,43,45,-1,47,49,51,-1,53,55,-1,57,59,61,63,65,67,69,71,73,75,77,79,81,-1,83,85,87,-1,89,-1,-1,91,93,95,97,-1,-1,-1,-1,-1,-1,-1,-1,-1,-1,-1,-1,-1,-1,-1,-1,-1,-1,-1,-1,-1,-1,-1,-1,-1,-1,-1,-1,-1,-1,-1,-1,-1,-1,-1,-1,-1,-1,-1,-1,-1,-1,-1],"loss_changes":[3.85835E2,2.3431073E2,1.6235016E1,9.718425E1,4.297104E1,8.7091064E-1,7.3615417E0,4.5490253E1,4.914441E1,4.072159E0,1.0190589E1,4.1101074E-1,2.5997133E0,4.9351587E0,1.1279488E0,2.0185637E1,2.3312387E1,8.957306E0,2.3291035E1,3.8975506E0,3.970398E0,8.77276E0,6.7105265E0,0E0,2.0199633E0,1.4107151E0,4.0058136E-2,0E0,7.2844906E0,2.507579E0,0E0,1.1493277E1,6.9943695E0,6.8608437E0,1.3134947E1,6.998596E0,1.5747292E1,1.3052339E1,1.319252E1,5.78961E0,1.6540592E0,2.6859894E0,2.922676E0,7.1598396E0,0E0,3.9230604E0,4.1612453E0,8.082861E0,0E0,1.1737647E0,0E0,0E0,2.7029567E0,5.1357923E0,6.4860096E0,3.1496089E0,0E0,0E0,0E0,0E0,0E0,0E0,0E0,0E0,0E0,0E0,0E0,0E0,0E0,0E0,0E0,0E0,0E0,0E0,0E0,0E0,0E0,0E0,0E0,0E0,0E0,0E0,0E0,0E0,0E0,0E0,0E0,0E0,0E0,0E0,0E0,0E0,0E0,0E0,0E0,0E0,0E0,0E0,0E0],"parents":[2147483647,0,0,1,1,2,2,3,3,4,4,5,5,6,6,7,7,8,8,9,9,10,10,11,11,12,12,13,13,14,14,15,15,16,16,17,17,18,18,19,19,20,20,21,21,22,22,24,24,25,25,26,26,28,28,29,29,31,31,32,32,33,33,34,34,35,35,36,36,37,37,38,38,39,39,40,40,41,41,42,42,43,43,45,45,46,46,47,47,49,49,52,52,53,53,54,54,55,55],"right_children":[2,4,6,8,10,12,14,16,18,20,22,24,26,28,30,32,34,36,38,40,42,44,46,-1,48,50,52,-1,54,56,-1,58,60,62,64,66,68,70,72,74,76,78,80,82,-1,84,86,88,-1,90,-1,-1,92,94,96,98,-1,-1,-1,-1,-1,-1,-1,-1,-1,-1,-1,-1,-1,-1,-1,-1,-1,-1,-1,-1,-1,-1,-1,-1,-1,-1,-1,-1,-1,-1,-1,-1,-1,-1,-1,-1,-1,-1,-1,-1,-1,-1,-1],"split_conditions":[1E0,1E0,9.490742E-1,1E0,1E0,1E0,1.6125733E0,-9.135524E-1,-7.098326E-1,-7.913205E-1,5.7013315E-1,1E0,1E0,9.849729E-1,1E0,1E0,1E0,1E0,1E0,-7.860769E-1,1E0,1.3203857E0,-5.0611275E-1,-3.7939796E-1,1.4088534E0,1E0,1.3203857E0,-4.1563845E-1,1.0421578E0,1.311395E0,-3.9010456E-1,-1.2395041E0,1E0,1E0,-9.966177E-2,-1.0765282E0,9.7068053E-1,1E0,1.7769264E0,-1.4924363E0,-4.9688506E-1,9.9561083E-1,-9.838576E-1,3.108577E-1,4.038444E-1,1E0,1.9004148E0,9.602443E-1,-3.6087564E-1,1E0,-2.459763E-1,-3.694508E-1,1.4905075E0,1E0,9.773286E-1,1.2083497E0,-3.183029E-1,1.12181276E-1,-3.3176757E-2,1.4554545E-1,3.3181685E-1,-1.8216163E-1,-5.2066963E-2,2.1995382E-1,-3.6586115E-1,3.0490643E-1,2.142913E-1,-6.548551E-2,3.417253E-1,-4.739985E-2,1.4224593E-1,1.7846774E-1,-2.2429039E-1,4.5042185E-4,-3.3901894E-1,2.6917854E-1,-7.4401505E-2,-3.595013E-1,2.453063E-3,1.4906055E-1,-2.3874725E-1,-1.2185695E-1,-3.6547416E-1,-7.431292E-2,4.2246506E-1,-3.8902895E-3,-1.3545156E-1,-3.261027E-1,3.1200394E-1,1.787997E-1,-1.02476954E-1,1.3126479E-1,-3.1748852E-1,1.9553526E-1,-2.9833958E-1,2.4298696E-1,-1.9420196E-1,-2.3053513E-1,2.7912685E-1],"split_indices":[26,25,6,11,24,28,3,3,3,3,6,0,4,7,14,28,0,14,28,6,18,7,3,0,3,2,7,0,3,6,0,3,24,28,6,3,6,0,7,6,6,6,6,6,0,20,7,7,0,5,0,0,7,27,6,6,0,0,0,0,0,0,0,0,0,0,0,0,0,0,0,0,0,0,0,0,0,0,0,0,0,0,0,0,0,0,0,0,0,0,0,0,0,0,0,0,0,0,0],"split_type":[0,0,0,0,0,0,0,0,0,0,0,0,0,0,0,0,0,0,0,0,0,0,0,0,0,0,0,0,0,0,0,0,0,0,0,0,0,0,0,0,0,0,0,0,0,0,0,0,0,0,0,0,0,0,0,0,0,0,0,0,0,0,0,0,0,0,0,0,0,0,0,0,0,0,0,0,0,0,0,0,0,0,0,0,0,0,0,0,0,0,0,0,0,0,0,0,0,0,0],"sum_hessian":[1.8688818E3,1.5801238E3,2.8875812E2,1.2608628E3,3.1926096E2,2.0785088E2,8.0907234E1,5.0056375E2,7.602991E2,1.4721059E2,1.7205037E2,1.917031E2,1.614778E1,5.8538807E1,2.2368425E1,3.0119925E2,1.993645E2,3.9044714E2,3.698519E2,2.176005E1,1.2545054E2,5.3606606E1,1.1844377E2,1.7848216E2,1.322094E1,4.602668E0,1.1545112E1,4.534785E0,5.400402E1,5.6324797E0,1.6735945E1,1.9836134E2,1.0283792E2,1.7072221E2,2.8642296E1,3.5682266E2,3.362448E1,1.5014465E2,2.1970724E2,1.8367947E1,3.3921025E0,8.526043E1,4.019011E1,5.2257347E1,1.3492557E0,5.3567014E0,1.1308707E2,5.7806926E0,7.4402466E0,3.4641438E0,1.1385238E0,7.6853952E0,3.8597167E0,1.0294074E1,4.3709946E1,2.4040766E0,3.228403E0,8.437052E1,1.1399082E2,7.852977E1,2.4308151E1,1.16254E2,5.4468204E1,2.5604034E1,3.0382614E0,2.1693979E2,1.3988287E2,2.0058918E1,1.3565562E1,1.0365622E2,4.6488434E1,2.1294893E2,6.7583075E0,7.1864147E0,1.1181532E1,1.5830501E0,1.8090525E0,8.33878E1,1.8726271E0,1.1880293E0,3.900208E1,3.6661983E1,1.55953665E1,1.6811137E0,3.6755877E0,8.503589E1,2.805118E1,3.9159193E0,1.8647733E0,1.8316662E0,1.6324776E0,1.1178433E0,2.7418733E0,8.882588E0,1.4114858E0,2.4540274E0,4.125592E1,1.090241E0,1.3138356E0],"tree_param":{"num_deleted":"0","num_feature":"30","num_nodes":"99","size_leaf_vector":"1"}},{"base_weights":[-9.09229E-3,1.4083558E-1,-9.184656E-1,2.8648034E-1,-4.4588065E-1,-1.0791055E0,-5.393082E-1,2.852358E-2,4.6380687E-1,-7.884369E-1,-1.4865407E-1,-1.1057206E0,-7.354E-1,-3.600965E-1,-1.0329444E0,2.624708E-1,-1.9060001E-1,7.480994E-1,2.9804876E-1,-8.178892E-1,2.984257E-1,-5.996103E-1,-4.126475E-2,-1.1279751E0,-7.5759304E-1,-3.4808046E-1,-3.784874E-1,-6.689075E-1,-6.687294E-2,-5.2021337E-1,-3.5135657E-1,1.7376348E-1,9.863167E-1,-5.4193836E-1,-7.2010316E-2,9.623022E-1,6.434971E-1,3.9167053E-1,-1.4749242E-1,-1.0157024E0,-6.443315E-1,3.548664E-1,-2.8522295E-1,4.7858956E-1,-8.887115E-1,7.7535183E-4,-7.533688E-1,-6.9188136E-1,-3.4268376E-1,-9.133571E-1,2.1144288E-2,5.894598E-1,-8.216404E-1,5.5085678E-2,-1.0853113E0,6.7627716E-1,-4.249881E-1,4.055705E-2,-2.8243947E-1,-1.79571E-2,1.2286513E-1,3.2778615E-1,-2.6388338E-2,-4.916775E-2,-3.131321E-1,2.796404E-1,-4.2432234E-2,2.96285E-1,5.8340836E-2,7.116526E-2,2.3377104E-1,6.849168E-2,2.1358807E-1,2.9333655E-3,-2.5527316E-1,-2.5436804E-1,-3.9867464E-1,-2.9659906E-1,-1.332175E-1,-1.9207695E-1,4.6171772E-1,-3.6676934E-1,-1.7845455E-1,1.0785889E-2,-2.6598185E-1,-4.0542457E-1,2.4769609E-1,-3.083152E-1,9.525697E-2,-1.22551434E-1,-3.3272955E-1,1.1137523E-2,2.7217945E-1,-2.2065153E-2,-3.3243155E-1,1.2810709E-1,-2.9513445E-1,-3.59977E-1,-1.1223331E-1,-1.1657333E-1,4.0459847E-1,1.7093796E-1,-1.9603768E-1],"categories":[],"categories_nodes":[],"categories_segments":[],"categories_sizes":[],"default_left":[0,0,0,0,0,0,0,0,0,0,0,0,0,0,0,0,0,0,0,0,0,0,0,0,0,0,0,0,0,0,0,0,0,0,0,0,0,0,0,0,0,0,0,0,0,0,0,0,0,0,0,0,0,0,0,0,0,0,0,0,0,0,0,0,0,0,0,0,0,0,0,0,0,0,0,0,0,0,0,0,0,0,0,0,0,0,0,0,0,0,0,0,0,0,0,0,0,0,0,0,0,0,0],"id":3,"left_children":[1,3,5,7,9,11,13,15,17,19,21,23,25,27,29,31,33,35,37,39,41,43,45,47,49,-1,51,53,55,57,-1,59,61,63,65,67,69,71,73,75,77,-1,-1,79,81,83,85,87,-1,89,-1,91,93,95,97,99,101,-1,-1,-1,-1,-1,-1,-1,-1,-1,-1,-1,-1,-1,-1,-1,-1,-1,-1,-1,-1,-1,-1,-1,-1,-1,-1,-1,-1,-1,-1,-1,-1,-1,-1,-1,-1,-1,-1,-1,-1,-1,-1,-1,-1,-1,-1],"loss_changes":[2.3809978E2,1.2824135E2,1.447258E1,5.495553E1,3.027982E1,7.658844E-1,6.3120403E0,2.5200626E1,3.333304E1,4.676407E0,7.776099E0,3.7127686E-1,1.8948679E0,5.1136003E0,7.792225E-1,1.5091587E1,1.054029E1,5.2423096E0,1.8889965E1,3.9830627E0,5.970295E0,1.0059535E1,3.9275281E0,1.2460327E-1,1.6834221E0,0E0,4.7090235E0,8.390881E0,8.359678E0,1.7725182E0,0E0,1.1755675E1,3.035202E0,1.1956303E1,1.3447298E1,1.4370956E0,9.675041E0,1.9372952E1,8.761364E0,2.1000366E0,4.7113266E0,0E0,0E0,9.510503E0,1.6982231E0,3.9295177E0,8.022032E0,2.7651262E0,0E0,5.9804344E-1,0E0,6.1146307E-1,1.455822E0,4.686728E0,9.8509026E-1,7.862488E0,5.163901E0,0E0,0E0,0E0,0E0,0E0,0E0,0E0,0E0,0E0,0E0,0E0,0E0,0E0,0E0,0E0,0E0,0E0,0E0,0E0,0E0,0E0,0E0,0E0,0E0,0E0,0E0,0E0,0E0,0E0,0E0,0E0,0E0,0E0,0E0,0E0,0E0,0E0,0E0,0E0,0E0,0E0,0E0,0E0,0E0,0E0,0E0],"parents":[2147483647,0,0,1,1,2,2,3,3,4,4,5,5,6,6,7,7,8,8,9,9,10,10,11,11,12,12,13,13,14,14,15,15,16,16,17,17,18,18,19,19,20,20,21,21,22,22,23,23,24,24,26,26,27,27,28,28,29,29,31,31,32,32,33,33,34,34,35,35,36,36,37,37,38,38,39,39,40,40,43,43,44,44,45,45,46,46,47,47,49,49,51,51,52,52,53,53,54,54,55,55,56,56],"right_children":[2,4,6,8,10,12,14,16,18,20,22,24,26,28,30,32,34,36,38,40,42,44,46,48,50,-1,52,54,56,58,-1,60,62,64,66,68,70,72,74,76,78,-1,-1,80,82,84,86,88,-1,90,-1,92,94,96,98,100,102,-1,-1,-1,-1,-1,-1,-1,-1,-1,-1,-1,-1,-1,-1,-1,-1,-1,-1,-1,-1,-1,-1,-1,-1,-1,-1,-1,-1,-1,-1,-1,-1,-1,-1,-1,-1,-1,-1,-1,-1,-1,-1,-1,-1,-1,-1],"split_conditions":[1E0,1E0,9.490742E-1,1E0,1E0,1E0,1.6125733E0,-1.0765282E0,-9.5429635E-1,1.7769264E0,1E0,1E0,1E0,1.3645798E0,1E0,1E0,-1.2630773E0,-9.5508283E-1,1E0,1E0,1E0,-2.61649E-1,1.5718292E0,-1.5090566E0,1E0,-3.4808046E-1,-3.4564105E-1,1.1202625E0,1.4692872E0,1.311395E0,-3.5135657E-1,1E0,1E0,-1.4791402E0,-8.7558085E-1,1E0,3.4243613E-1,1.0039209E0,7.5695E-1,6.754621E-1,-1.3528265E0,3.548664E-1,-2.8522295E-1,1E0,1E0,1.6005869E0,2.5705786E0,-1.5107186E0,-3.4268376E-1,1E0,2.1144288E-2,1E0,1E0,1E0,2.160914E0,1.3681095E0,1.870017E0,4.055705E-2,-2.8243947E-1,-1.79571E-2,1.2286513E-1,3.2778615E-1,-2.6388338E-2,-4.916775E-2,-3.131321E-1,2.796404E-1,-4.2432234E-2,2.96285E-1,5.8340836E-2,7.116526E-2,2.3377104E-1,6.849168E-2,2.1358807E-1,2.9333655E-3,-2.5527316E-1,-2.5436804E-1,-3.9867464E-1,-2.9659906E-1,-1.332175E-1,-1.9207695E-1,4.6171772E-1,-3.6676934E-1,-1.7845455E-1,1.0785889E-2,-2.6598185E-1,-4.0542457E-1,2.4769609E-1,-3.083152E-1,9.525697E-2,-1.22551434E-1,-3.3272955E-1,1.1137523E-2,2.7217945E-1,-2.2065153E-2,-3.3243155E-1,1.2810709E-1,-2.9513445E-1,-3.59977E-1,-1.1223331E-1,-1.1657333E-1,4.0459847E-1,1.7093796E-1,-1.9603768E-1],"split_indices":[26,25,6,11,22,28,3,3,3,7,24,0,24,6,14,0,6,7,20,8,18,3,3,6,2,0,6,6,6,6,0,5,27,6,7,27,6,6,3,3,6,0,0,20,8,6,7,6,0,1,0,22,16,27,7,3,7,0,0,0,0,0,0,0,0,0,0,0,0,0,0,0,0,0,0,0,0,0,0,0,0,0,0,0,0,0,0,0,0,0,0,0,0,0,0,0,0,0,0,0,0,0,0],"split_type":[0,0,0,0,0,0,0,0,0,0,0,0,0,0,0,0,0,0,0,0,0,0,0,0,0,0,0,0,0,0,0,0,0,0,0,0,0,0,0,0,0,0,0,0,0,0,0,0,0,0,0,0,0,0,0,0,0,0,0,0,0,0,0,0,0,0,0,0,0,0,0,0,0,0,0,0,0,0,0,0,0,0,0,0,0,0,0,0,0,0,0,0,0,0,0,0,0,0,0,0,0,0,0],"sum_hessian":[1.7444136E3,1.498244E3,2.4616954E2,1.200698E3,2.9754608E2,1.7161455E2,7.455499E1,4.896155E2,7.1108246E2,1.3746445E2,1.6008162E2,1.5722281E2,1.4391743E1,5.5966263E1,1.8588732E1,2.3670242E2,2.5291309E2,2.6060474E2,4.5047772E2,1.340786E2,3.3858483E0,2.9907707E1,1.3017392E2,1.456705E2,1.1552298E1,5.54278E0,8.848963E0,2.663459E1,2.933167E1,4.9590807E0,1.362965E1,2.1196603E2,2.4736387E1,6.2923542E1,1.8998955E2,8.281596E1,1.7778877E2,3.7235544E2,7.812229E1,6.0393074E1,7.368553E1,2.0133643E0,1.3724838E0,6.185079E0,2.3722628E1,1.2386054E2,6.313377E0,6.1942267E0,1.3947627E2,9.6366205E0,1.9156772E0,2.675315E0,6.173648E0,1.0042172E1,1.6592419E1,9.249319E0,2.0082352E1,2.2059822E0,2.7530987E0,1.06846954E2,1.0511909E2,2.2493496E1,2.242891E0,3.66447E1,2.6278841E1,1.1483457E1,1.7850609E2,7.989567E1,2.9202988E0,4.5212326E1,1.3257645E2,2.4771849E2,1.2463693E2,6.465322E1,1.3469076E1,4.173823E1,1.8654844E1,2.5649492E1,4.8036037E1,3.2025197E0,2.9825594E0,9.626175E0,1.4096453E1,1.2006058E2,3.7999623E0,4.683624E0,1.6297531E0,4.6342406E0,1.5599864E0,3.554887E0,6.0817337E0,1.3850174E0,1.2902975E0,2.0574536E0,4.1161942E0,7.828386E0,2.2137864E0,1.3697799E1,2.8946197E0,3.7432406E0,5.5060787E0,3.4718182E0,1.6610535E1],"tree_param":{"num_deleted":"0","num_feature":"30","num_nodes":"103","size_leaf_vector":"1"}},{"base_weights":[-1.1278811E-2,1.0440532E-1,-8.0366695E-1,2.144421E-1,-3.4823975E-1,-9.740959E-1,-4.4350022E-1,3.37075E-2,3.915821E-1,-6.712062E-1,-1.24355845E-1,-1.0031363E0,-6.300789E-1,-2.84941E-1,-9.340256E-1,1.9191974E-1,-1.6356015E-1,5.0403035E-1,1.4011246E-1,-7.8895575E-1,-2.4184543E-1,-2.6419076E-1,9.076148E-2,-1.0282482E0,-6.497101E-1,-3.129052E-1,-3.061571E-1,-7.0107865E-1,-1.1493768E-1,-4.2913815E-1,-3.244372E-1,3.0362718E-2,6.553738E-1,-4.2047593E-1,2.1107252E-1,2.524352E-1,5.8343726E-1,-5.88204E-1,2.6424822E-1,-1.7218658E-1,-8.839643E-1,-8.0311114E-1,1.7208017E-2,-2.1629134E-1,-4.0218943E-1,5.32906E-1,-3.379486E-2,-5.945212E-1,-3.1318504E-1,-3.0709207E-1,-1.3721599E-1,5.074865E-1,-7.065638E-1,-3.449329E-1,-3.7962264E-1,-8.1733215E-1,9.206233E-2,-2.742186E-1,1.0712623E-1,8.1477106E-2,-3.5579816E-2,1.353734E-1,2.8413025E-1,-4.2978257E-1,-1.05603546E-1,1.0483966E-1,-8.6931914E-2,1.2688234E-1,-1.1785468E-1,1.5494876E-1,2.588234E-1,-2.5427732E-1,-2.5261072E-3,1.1861275E-1,-8.02866E-2,-2.2063048E-1,1.2524389E-1,-3.2025695E-1,-1.8387663E-1,-3.1525016E-1,1.7294014E-2,1.2674981E-1,-2.5473437E-1,-1.5637355E-2,-1.3803089E-1,2.3462118E-1,-1.2555142E-1,-9.487262E-2,1.0150772E-1,-2.8097412E-1,7.4733466E-2,2.714046E-1,-2.6881775E-1,2.289359E-1,-9.402974E-3,9.29104E-3,-2.994228E-1,-2.603092E-1,4.253665E-2,1.182963E-1,-3.7643814E-1,1.5068552E-1,-3.538933E-2],"categories":[],"categories_nodes":[],"categories_segments":[],"categories_sizes":[],"default_left":[0,0,0,0,0,0,0,0,0,0,0,0,0,0,0,0,0,0,0,0,0,0,0,0,0,0,0,0,0,0,0,0,0,0,0,0,0,0,0,0,0,0,0,0,0,0,0,0,0,0,0,0,0,0,0,0,0,0,0,0,0,0,0,0,0,0,0,0,0,0,0,0,0,0,0,0,0,0,0,0,0,0,0,0,0,0,0,0,0,0,0,0,0,0,0,0,0,0,0,0,0,0,0],"id":4,"left_children":[1,3,5,7,9,11,13,15,17,19,21,23,25,27,29,31,33,35,37,39,41,43,45,47,49,-1,51,53,55,57,-1,59,61,63,65,67,69,71,73,75,77,79,81,83,-1,85,87,89,-1,-1,91,93,95,-1,97,99,101,-1,-1,-1,-1,-1,-1,-1,-1,-1,-1,-1,-1,-1,-1,-1,-1,-1,-1,-1,-1,-1,-1,-1,-1,-1,-1,-1,-1,-1,-1,-1,-1,-1,-1,-1,-1,-1,-1,-1,-1,-1,-1,-1,-1,-1,-1],"loss_changes":[1.5022966E2,7.130804E1,1.2383652E1,3.683992E1,2.0166962E1,7.7545166E-1,5.092513E0,1.7848248E1,1.6365303E1,5.594528E0,5.0363693E0,4.6998596E-1,1.5073028E0,3.7046928E0,7.5601864E-1,2.3734217E1,2.4595093E1,7.869171E0,1.6518276E1,5.0842247E0,3.80436E0,4.930124E0,3.674177E0,1.8300629E-1,2.0102758E0,0E0,3.312944E0,1.773613E0,5.7723317E0,2.370905E0,0E0,8.523226E0,4.453171E0,9.98488E0,7.3267484E0,1.0951162E1,5.2427216E0,4.0030174E0,1.0938225E1,4.6811438E0,3.1861458E0,1.8205328E0,6.965402E0,3.9033675E0,0E0,3.8005314E0,5.6504526E0,2.0933552E0,0E0,0E0,5.4667945E0,5.1605093E-1,1.4274528E0,0E0,2.774804E0,5.27602E0,2.7441878E0,0E0,0E0,0E0,0E0,0E0,0E0,0E0,0E0,0E0,0E0,0E0,0E0,0E0,0E0,0E0,0E0,0E0,0E0,0E0,0E0,0E0,0E0,0E0,0E0,0E0,0E0,0E0,0E0,0E0,0E0,0E0,0E0,0E0,0E0,0E0,0E0,0E0,0E0,0E0,0E0,0E0,0E0,0E0,0E0,0E0,0E0],"parents":[2147483647,0,0,1,1,2,2,3,3,4,4,5,5,6,6,7,7,8,8,9,9,10,10,11,11,12,12,13,13,14,14,15,15,16,16,17,17,18,18,19,19,20,20,21,21,22,22,23,23,24,24,26,26,27,27,28,28,29,29,31,31,32,32,33,33,34,34,35,35,36,36,37,37,38,38,39,39,40,40,41,41,42,42,43,43,45,45,46,46,47,47,50,50,51,51,52,52,54,54,55,55,56,56],"right_children":[2,4,6,8,10,12,14,16,18,20,22,24,26,28,30,32,34,36,38,40,42,44,46,48,50,-1,52,54,56,58,-1,60,62,64,66,68,70,72,74,76,78,80,82,84,-1,86,88,90,-1,-1,92,94,96,-1,98,100,102,-1,-1,-1,-1,-1,-1,-1,-1,-1,-1,-1,-1,-1,-1,-1,-1,-1,-1,-1,-1,-1,-1,-1,-1,-1,-1,-1,-1,-1,-1,-1,-1,-1,-1,-1,-1,-1,-1,-1,-1,-1,-1,-1,-1,-1,-1],"split_conditions":[1E0,1E0,9.490742E-1,1E0,1E0,1E0,1.6125733E0,-7.913205E-1,-3.8388088E-1,1E0,1.2199838E0,1E0,1E0,1E0,1.311395E0,2.4271479E-1,1E0,1E0,-8.35611E-2,-8.905371E-1,1E0,1.1900674E0,1E0,-1.5090566E0,9.602443E-1,-3.129052E-1,-3.4564105E-1,1E0,1E0,1.2748306E0,-3.244372E-1,-1.2395041E0,1E0,-7.098326E-1,7.5695E-1,1E0,9.490742E-1,1E0,1E0,1E0,-3.256968E-1,8.0946434E-1,1E0,1E0,-4.0218943E-1,1.3273655E0,1E0,-1.5107186E0,-3.1318504E-1,-3.0709207E-1,1.4088534E0,1E0,1E0,-3.449329E-1,1E0,1.0238652E0,1E0,-2.742186E-1,1.0712623E-1,8.1477106E-2,-3.5579816E-2,1.353734E-1,2.8413025E-1,-4.2978257E-1,-1.05603546E-1,1.0483966E-1,-8.6931914E-2,1.2688234E-1,-1.1785468E-1,1.5494876E-1,2.588234E-1,-2.5427732E-1,-2.5261072E-3,1.1861275E-1,-8.02866E-2,-2.2063048E-1,1.2524389E-1,-3.2025695E-1,-1.8387663E-1,-3.1525016E-1,1.7294014E-2,1.2674981E-1,-2.5473437E-1,-1.5637355E-2,-1.3803089E-1,2.3462118E-1,-1.2555142E-1,-9.487262E-2,1.0150772E-1,-2.8097412E-1,7.4733466E-2,2.714046E-1,-2.6881775E-1,2.289359E-1,-9.402974E-3,9.29104E-3,-2.994228E-1,-2.603092E-1,4.253665E-2,1.182963E-1,-3.7643814E-1,1.5068552E-1,-3.538933E-2],"split_indices":[26,25,6,28,24,28,3,3,3,28,6,0,24,5,6,6,24,5,7,7,8,6,18,6,7,0,6,16,10,6,0,3,22,3,3,16,6,10,20,1,6,6,20,14,0,3,28,6,0,0,3,5,20,0,8,6,16,0,0,0,0,0,0,0,0,0,0,0,0,0,0,0,0,0,0,0,0,0,0,0,0,0,0,0,0,0,0,0,0,0,0,0,0,0,0,0,0,0,0,0,0,0,0],"split_type":[0,0,0,0,0,0,0,0,0,0,0,0,0,0,0,0,0,0,0,0,0,0,0,0,0,0,0,0,0,0,0,0,0,0,0,0,0,0,0,0,0,0,0,0,0,0,0,0,0,0,0,0,0,0,0,0,0,0,0,0,0,0,0,0,0,0,0,0,0,0,0,0,0,0,0,0,0,0,0,0,0,0,0,0,0,0,0,0,0,0,0,0,0,0,0,0,0,0,0,0,0,0,0],"sum_hessian":[1.6369526E3,1.4291702E3,2.0778241E2,1.1501083E3,2.7906192E2,1.3988503E2,6.789739E1,5.6986725E2,5.8024097E2,1.1343168E2,1.6563025E2,1.2722896E2,1.2656058E1,5.250604E1,1.5391358E1,3.162534E2,2.5361386E2,4.0025632E2,1.7998466E2,8.836155E1,2.507013E1,1.00241264E2,6.5388985E1,1.1700599E2,1.0222968E1,4.587679E0,8.068379E0,1.4322705E1,3.818333E1,4.3625035E0,1.1028855E1,2.352962E2,8.0957184E1,1.5037039E2,1.03243454E2,9.702349E1,3.0323285E2,2.5665325E1,1.5431934E2,1.2169948E1,7.6191605E1,7.2538176E0,1.781631E1,9.712053E1,3.1207356E0,1.3651406E1,5.173758E1,5.4456735E0,1.1156032E2,5.3338623E0,4.8891053E0,2.5728364E0,5.495543E0,4.902657E0,9.420048E0,8.020302E0,3.016303E1,2.5977087E0,1.764795E0,8.951437E1,1.4578183E2,4.912789E1,3.1829294E1,8.264726E0,1.4210567E2,8.11284E1,2.2115051E1,7.701744E1,2.000605E1,2.4690616E2,5.632668E1,1.741306E1,8.252266E0,1.2400396E2,3.031538E1,6.09797E0,6.0719776E0,4.3674915E1,3.251669E1,5.4612637E0,1.7925537E0,1.2486884E1,5.3294272E0,5.8765476E1,3.8355053E1,1.0959274E1,2.692132E0,2.9499268E1,2.223831E1,3.7962654E0,1.6494082E0,1.9793103E0,2.9097953E0,1.4626625E0,1.110174E0,1.8099867E0,3.6855562E0,4.5225344E0,4.897514E0,2.1537101E0,5.866592E0,9.742508E0,2.0420523E1],"tree_param":{"num_deleted":"0","num_feature":"30","num_nodes":"103","size_leaf_vector":"1"}},{"base_weights":[-1.3248212E-2,7.6214686E-2,-7.04468E-1,1.5930885E-1,-2.7259913E-1,-8.8699514E-1,-3.6641103E-1,2.1492122E-1,-2.4825677E-1,-5.4304487E-1,-7.485436E-2,-3.2953173E-1,-8.072786E-1,-2.636592E-1,-3.146788E-1,2.9923794E-1,-1.3229334E-1,2.861857E-2,-4.050696E-1,-7.447784E-1,-3.6161956E-1,4.1744384E-1,-1.3991408E-1,7.490565E-2,-8.328177E-1,-4.9772838E-1,-2.695809E-2,5.061586E-1,1.7089406E-1,2.8382117E-2,-7.5145966E-1,-2.6690876E-1,6.164501E-1,4.6852693E-2,-6.89244E-1,-2.4097109E-1,-9.854043E-1,6.033536E-2,-6.3036615E-1,-6.031797E-1,6.06358E-1,-5.1512516E-1,-3.5892166E-2,-1.5165573E-1,-8.7962335E-1,5.175567E-1,-6.177128E-1,-3.1823123E-1,9.367368E-2,1.1469545E-1,2.1255073E-1,-4.3534454E-2,7.66601E-2,-9.117829E-2,6.0107872E-2,-2.9942608E-1,-1.0578034E-1,-3.6838472E-1,9.230083E-3,3.934717E-2,2.2231118E-1,1.20169364E-1,-1.0845191E-1,-3.2183728E-1,-1.3385233E-1,-2.524437E-1,1.0623921E-1,-2.3788187E-1,-3.754876E-1,-1.432479E-1,1.6920546E-1,-2.7874976E-1,-5.6343496E-2,2.6877629E-2,-3.0012387E-1,2.5671396E-1,5.046917E-2,-6.690155E-2,-3.6452073E-1,1.5045717E-1,-2.8523333E-2,-2.6559213E-1,2.7510086E-1,-2.8012037E-1,-1.265798E-1,-3.4768067E-2,2.7703428E-1,-1.9183759E-2,-2.4081352E-1,2.987707E-1,-3.6235582E-2],"categories":[],"categories_nodes":[],"categories_segments":[],"categories_sizes":[],"default_left":[0,0,0,0,0,0,0,0,0,0,0,0,0,0,0,0,0,0,0,0,0,0,0,0,0,0,0,0,0,0,0,0,0,0,0,0,0,0,0,0,0,0,0,0,0,0,0,0,0,0,0,0,0,0,0,0,0,0,0,0,0,0,0,0,0,0,0,0,0,0,0,0,0,0,0,0,0,0,0,0,0,0,0,0,0,0,0,0,0,0,0],"id":5,"left_children":[1,3,5,7,9,11,13,15,17,19,21,-1,23,25,-1,27,29,31,33,35,37,39,41,-1,43,45,47,49,51,53,55,57,59,61,63,65,67,69,71,73,75,77,79,81,83,85,87,-1,89,-1,-1,-1,-1,-1,-1,-1,-1,-1,-1,-1,-1,-1,-1,-1,-1,-1,-1,-1,-1,-1,-1,-1,-1,-1,-1,-1,-1,-1,-1,-1,-1,-1,-1,-1,-1,-1,-1,-1,-1,-1,-1],"loss_changes":[9.570204E1,3.976351E1,1.0618172E1,2.5152855E1,1.40787945E1,1.0425797E0,4.2037315E0,2.8582363E1,5.8045244E0,3.8060532E0,4.980171E0,0E0,2.5536118E0,3.1369843E0,0E0,2.0754517E1,1.9041782E1,8.707623E0,1.0980031E1,6.0398464E0,6.906592E0,3.87265E0,5.3082924E0,0E0,2.5790443E0,3.7955012E0,3.757039E0,7.2443542E0,1.3032209E1,8.7911625E0,3.5266113E0,9.599341E0,9.1579866E-1,5.0335975E0,4.406536E0,6.7522964E0,7.8650665E-1,6.900798E0,4.7300873E0,1.0093491E0,1.5872393E0,5.770853E0,3.4806309E0,6.047899E0,1.5724297E0,1.0222545E0,2.6095057E0,0E0,5.380036E0,0E0,0E0,0E0,0E0,0E0,0E0,0E0,0E0,0E0,0E0,0E0,0E0,0E0,0E0,0E0,0E0,0E0,0E0,0E0,0E0,0E0,0E0,0E0,0E0,0E0,0E0,0E0,0E0,0E0,0E0,0E0,0E0,0E0,0E0,0E0,0E0,0E0,0E0,0E0,0E0,0E0,0E0],"parents":[2147483647,0,0,1,1,2,2,3,3,4,4,5,5,6,6,7,7,8,8,9,9,10,10,12,12,13,13,15,15,16,16,17,17,18,18,19,19,20,20,21,21,22,22,24,24,25,25,26,26,27,27,28,28,29,29,30,30,31,31,32,32,33,33,34,34,35,35,36,36,37,37,38,38,39,39,40,40,41,41,42,42,43,43,44,44,45,45,46,46,48,48],"right_children":[2,4,6,8,10,12,14,16,18,20,22,-1,24,26,-1,28,30,32,34,36,38,40,42,-1,44,46,48,50,52,54,56,58,60,62,64,66,68,70,72,74,76,78,80,82,84,86,88,-1,90,-1,-1,-1,-1,-1,-1,-1,-1,-1,-1,-1,-1,-1,-1,-1,-1,-1,-1,-1,-1,-1,-1,-1,-1,-1,-1,-1,-1,-1,-1,-1,-1,-1,-1,-1,-1,-1,-1,-1,-1,-1,-1],"split_conditions":[1E0,1E0,9.490742E-1,1E0,1E0,5.532302E-1,2.5054593E0,1E0,-9.9659854E-1,1.8653457E-1,-3.8388088E-1,-3.2953173E-1,5.939742E-1,1.3645798E0,-3.146788E-1,-1.0357842E0,4.3099833E-1,1E0,-1.4924363E0,-7.913205E-1,6.754621E-1,-8.728084E-1,5.119624E-1,7.490565E-2,-5.196749E-1,9.773286E-1,6.754621E-1,3.2747793E-1,1E0,-7.252462E-1,1.0238652E0,1E0,-1.5024085E0,1E0,-9.583697E-1,1E0,-3.173867E-1,-1.4952244E-1,1.0310991E0,-1.1172721E0,4.2719924E-1,3.175058E-1,3.811196E-1,1E0,1E0,1E0,1.412285E0,-3.1823123E-1,1.870017E0,1.1469545E-1,2.1255073E-1,-4.3534454E-2,7.66601E-2,-9.117829E-2,6.0107872E-2,-2.9942608E-1,-1.0578034E-1,-3.6838472E-1,9.230083E-3,3.934717E-2,2.2231118E-1,1.20169364E-1,-1.0845191E-1,-3.2183728E-1,-1.3385233E-1,-2.524437E-1,1.0623921E-1,-2.3788187E-1,-3.754876E-1,-1.432479E-1,1.6920546E-1,-2.7874976E-1,-5.6343496E-2,2.6877629E-2,-3.0012387E-1,2.5671396E-1,5.046917E-2,-6.690155E-2,-3.6452073E-1,1.5045717E-1,-2.8523333E-2,-2.6559213E-1,2.7510086E-1,-2.8012037E-1,-1.265798E-1,-3.4768067E-2,2.7703428E-1,-1.9183759E-2,-2.4081352E-1,2.987707E-1,-3.6235582E-2],"split_indices":[26,25,6,12,22,3,7,14,7,3,3,0,3,6,0,3,3,5,6,3,3,3,6,0,7,6,3,6,5,7,6,29,6,8,7,1,6,6,7,3,6,6,7,8,28,5,7,0,7,0,0,0,0,0,0,0,0,0,0,0,0,0,0,0,0,0,0,0,0,0,0,0,0,0,0,0,0,0,0,0,0,0,0,0,0,0,0,0,0,0,0],"split_type":[0,0,0,0,0,0,0,0,0,0,0,0,0,0,0,0,0,0,0,0,0,0,0,0,0,0,0,0,0,0,0,0,0,0,0,0,0,0,0,0,0,0,0,0,0,0,0,0,0,0,0,0,0,0,0,0,0,0,0,0,0,0,0,0,0,0,0,0,0,0,0,0,0,0,0,0,0,0,0,0,0,0,0,0,0,0,0,0,0,0,0],"sum_hessian":[1.5457437E3,1.3693958E3,1.7634782E2,1.1063784E3,2.6301733E2,1.1346231E2,6.2885513E1,9.739549E2,1.3242358E2,1.1035038E2,1.5266695E2,2.7565912E1,8.58964E1,5.586191E1,7.023602E0,7.837654E2,1.9018948E2,4.8177265E1,8.424632E1,5.0780506E1,5.956987E1,1.7188389E1,1.3547856E2,1.8194579E0,8.407694E1,2.7532642E1,2.832927E1,2.9890927E2,4.848561E2,1.5176118E2,3.8428307E1,3.242288E1,1.5754385E1,3.2846184E1,5.1400135E1,1.7060904E1,3.3719604E1,2.347991E1,3.608996E1,2.3421047E0,1.4846284E1,2.8549028E1,1.06929535E2,5.678467E0,7.8398476E1,2.55967E0,2.4972973E1,2.1458557E0,2.6183414E1,1.872166E2,1.1169269E2,1.0227804E2,3.8257806E2,5.1493572E1,1.002676E2,2.2817282E1,1.5611025E1,6.928672E0,2.5494207E1,3.6376646E0,1.2116721E1,1.7611E1,1.5235183E1,1.8614393E1,3.2785744E1,8.285812E0,8.775091E0,2.1879963E1,1.1839643E1,1.1380212E1,1.2099699E1,2.0887672E1,1.5202288E1,1.135777E0,1.2063278E0,8.854011E0,5.992273E0,2.1072905E1,7.4761243E0,9.866468E0,9.706307E1,3.468712E0,2.209755E0,6.917952E1,9.218958E0,1.2786407E0,1.2810292E0,6.5906115E0,1.838236E1,4.328717E0,2.1854696E1],"tree_param":{"num_deleted":"0","num_feature":"30","num_nodes":"91","size_leaf_vector":"1"}},{"base_weights":[-1.4147608E-2,5.3919956E-2,-6.0361046E-1,-6.640664E-2,1.9637915E-1,-7.9636127E-1,-2.8964862E-1,1.0225205E-1,-1.9631097E-1,2.5999972E-1,-1.0576288E-1,-3.1514788E-1,-7.078117E-1,-2.0068212E-1,-2.922721E-1,1.4786506E-2,5.9791994E-1,-4.2008546E-1,2.9176034E-2,2.728837E-1,-3.630848E-1,-4.1686663E-1,1.8547978E-1,-5.84452E-1,-3.1879562E-1,-2.992385E-1,-1.3169727E-1,3.1717796E-2,-6.650232E-1,4.5916286E-1,1.0266484E0,-3.368152E-1,-8.876375E-1,1.7418362E-1,-2.1026076E-1,2.9853912E-2,3.4703833E-1,-1.6350728E-1,-1.1999773E0,3.665461E-1,-1.1329423E-1,-6.529406E-1,2.1437357E-1,-5.2255374E-1,1.0002676E-2,4.4667333E-2,-4.7435146E-2,2.0489357E-1,1.6180987E-2,6.431137E-2,3.3322272E-1,-1.5507749E-1,6.2287333E-3,2.0070074E-1,-2.903702E-1,6.785365E-2,-3.419888E-1,-3.0065775E-1,-1.2140336E-2,-7.814416E-2,8.694486E-2,1.2736644E-1,2.0386528E-3,-1.0304393E-1,2.6728275E-1,-1.8872885E-1,-4.706885E-1,2.175456E-1,-8.802667E-2,-3.8394332E-1,9.021202E-2,-1.1346948E-1,-2.6461342E-1,-1.9230816E-1,7.7001855E-2,2.0434318E-1,-4.5548417E-2],"categories":[],"categories_nodes":[],"categories_segments":[],"categories_sizes":[],"default_left":[0,0,0,0,0,0,0,0,0,0,0,0,0,0,0,0,0,0,0,0,0,0,0,0,0,0,0,0,0,0,0,0,0,0,0,0,0,0,0,0,0,0,0,0,0,0,0,0,0,0,0,0,0,0,0,0,0,0,0,0,0,0,0,0,0,0,0,0,0,0,0,0,0,0,0,0,0],"id":6,"left_children":[1,3,5,7,9,11,13,15,17,19,21,-1,23,25,-1,27,29,31,33,35,-1,37,39,41,-1,-1,43,45,-1,47,49,51,53,55,57,59,61,63,65,67,69,71,-1,73,75,-1,-1,-1,-1,-1,-1,-1,-1,-1,-1,-1,-1,-1,-1,-1,-1,-1,-1,-1,-1,-1,-1,-1,-1,-1,-1,-1,-1,-1,-1,-1,-1],"loss_changes":[5.920789E1,2.2692791E1,9.013645E0,1.5751184E1,1.1677763E1,1.3735008E0,3.4393196E0,1.3563525E1,2.0495485E1,9.81971E0,9.693534E0,0E0,2.5670586E0,2.8409278E0,0E0,1.01631565E1,2.3204994E0,7.6360283E0,7.089448E0,8.953835E0,0E0,1.004641E1,3.0443673E0,5.4725723E0,0E0,0E0,2.8253257E0,5.9426336E0,0E0,3.3429604E0,4.9046612E-1,1.1256258E1,4.420677E0,8.939825E0,1.03229475E1,8.935127E0,1.0046436E1,7.927732E0,1.6379223E0,8.448372E0,1.0869204E1,3.063179E0,0E0,1.4170051E0,4.268847E0,0E0,0E0,0E0,0E0,0E0,0E0,0E0,0E0,0E0,0E0,0E0,0E0,0E0,0E0,0E0,0E0,0E0,0E0,0E0,0E0,0E0,0E0,0E0,0E0,0E0,0E0,0E0,0E0,0E0,0E0,0E0,0E0],"parents":[2147483647,0,0,1,1,2,2,3,3,4,4,5,5,6,6,7,7,8,8,9,9,10,10,12,12,13,13,15,15,16,16,17,17,18,18,19,19,21,21,22,22,23,23,26,26,27,27,29,29,30,30,31,31,32,32,33,33,34,34,35,35,36,36,37,37,38,38,39,39,40,40,41,41,43,43,44,44],"right_children":[2,4,6,8,10,12,14,16,18,20,22,-1,24,26,-1,28,30,32,34,36,-1,38,40,42,-1,-1,44,46,-1,48,50,52,54,56,58,60,62,64,66,68,70,72,-1,74,76,-1,-1,-1,-1,-1,-1,-1,-1,-1,-1,-1,-1,-1,-1,-1,-1,-1,-1,-1,-1,-1,-1,-1,-1,-1,-1,-1,-1,-1,-1,-1,-1],"split_conditions":[1E0,1E0,9.490742E-1,-7.913205E-1,1E0,5.532302E-1,2.5054593E0,4.8370802E-1,1E0,1.5310853E0,1E0,-3.1514788E-1,5.0032824E-1,9.849729E-1,-2.922721E-1,4.4880554E-1,1E0,7.5695E-1,1E0,1E0,-3.630848E-1,6.430268E-2,7.162061E-1,4.8370802E-1,-3.1879562E-1,-2.992385E-1,1E0,1E0,-6.650232E-1,1E0,-1.1987602E0,1E0,-1.5057325E0,1.4277366E0,3.025476E-1,1E0,4.2541483E-1,-9.867316E-2,4.0013477E-1,1E0,9.773286E-1,1.3273655E0,2.1437357E-1,1.6703918E0,1.4905075E0,4.4667333E-2,-4.7435146E-2,2.0489357E-1,1.6180987E-2,6.431137E-2,3.3322272E-1,-1.5507749E-1,6.2287333E-3,2.0070074E-1,-2.903702E-1,6.785365E-2,-3.419888E-1,-3.0065775E-1,-1.2140336E-2,-7.814416E-2,8.694486E-2,1.2736644E-1,2.0386528E-3,-1.0304393E-1,2.6728275E-1,-1.8872885E-1,-4.706885E-1,2.175456E-1,-8.802667E-2,-3.8394332E-1,9.021202E-2,-1.1346948E-1,-2.6461342E-1,-1.9230816E-1,7.7001855E-2,2.0434318E-1,-4.5548417E-2],"split_indices":[26,28,6,3,20,3,7,6,24,3,10,0,6,7,0,6,0,3,20,5,0,3,3,6,0,0,5,12,0,8,3,16,6,6,6,8,7,3,7,8,6,3,0,6,7,0,0,0,0,0,0,0,0,0,0,0,0,0,0,0,0,0,0,0,0,0,0,0,0,0,0,0,0,0,0,0,0],"split_type":[0,0,0,0,0,0,0,0,0,0,0,0,0,0,0,0,0,0,0,0,0,0,0,0,0,0,0,0,0,0,0,0,0,0,0,0,0,0,0,0,0,0,0,0,0,0,0,0,0,0,0,0,0,0,0,0,0,0,0,0,0,0,0,0,0,0,0,0,0,0,0,0,0,0,0,0,0],"sum_hessian":[1.4738374E3,1.3220802E3,1.517572E2,7.170043E2,6.050759E2,9.307755E1,5.8679653E1,3.1206015E2,4.0494412E2,4.9994452E2,1.0513139E2,2.1244326E1,7.183322E1,5.307536E1,5.6042967E0,2.6612888E2,4.5931263E1,2.028107E2,2.0213342E2,4.964089E2,3.5356004E0,5.0623894E1,5.45075E1,5.5266857E1,1.6566366E1,3.1566544E0,4.9918705E1,2.6510324E2,1.025631E0,3.626512E1,9.6661415E0,1.736112E2,2.91995E1,1.26060974E2,7.607245E1,1.1638347E2,3.8002545E2,3.916247E1,1.1461422E1,3.3798016E1,2.0709482E1,5.2971416E1,2.295442E0,1.2566977E1,3.7351727E1,1.6405682E2,1.0104641E2,2.2920296E1,1.3344827E1,1.239809E0,8.426332E0,1.1516011E2,5.845109E1,1.0720873E0,2.812741E1,1.2205949E2,4.001489E0,1.2565103E1,6.350735E1,5.4979057E1,6.1404415E1,3.093088E2,7.0716644E1,3.4028736E1,5.133735E0,5.5616117E0,5.899811E0,2.1834871E1,1.1963145E1,4.8768415E0,1.583264E1,2.5293715E1,2.7677702E1,1.1062406E1,1.5045705E0,6.6332893E0,3.071844E1],"tree_param":{"num_deleted":"0","num_feature":"30","num_nodes":"77","size_leaf_vector":"1"}},{"base_weights":[-1.3982378E-2,3.7839897E-2,-5.110392E-1,9.888106E-2,-1.7975493E-1,-6.6696787E-1,-1.3368456E-1,1.2865596E-1,-3.6085898E-1,-4.318482E-1,-5.823574E-2,-3.0936497E-1,-5.6767905E-1,-1.2209415E-2,-2.7267572E-1,-4.7858417E-2,2.1166724E-1,-8.5070205E-1,-1.279444E-1,-1.338473E-1,-9.7690237E-1,6.676645E-2,-3.364912E-1,-4.4188097E-1,-8.4931904E-1,-6.435965E-1,9.537688E-2,1.7296365E-1,-1.9932811E-1,2.732334E-1,-5.662813E-2,-1.1869925E-1,-1.0480963E0,9.459988E-2,-5.6038105E-1,-3.274201E-1,1.7566265E-1,2.7185956E-1,-1.128896E0,2.640533E-1,-1.3800448E-1,-9.6830666E-1,-1.1990308E-1,-5.107995E-1,1.6887888E-1,-1.9678853E-1,-2.9100507E-1,-3.0873114E-1,6.3512065E-2,-6.773741E-1,2.9290882E-1,-4.048632E-1,6.373205E-2,-8.715934E-2,8.6091414E-2,5.8783237E-2,1.6324419E-1,-6.641516E-2,9.358735E-2,1.327756E-1,-2.0574468E-1,-4.055594E-1,-1.296406E-1,1.04969025E-1,-2.804189E-1,-2.851747E-1,1.7481819E-1,-1.7357218E-1,2.2149046E-1,2.9931903E-1,-1.5456427E-2,-2.2964379E-1,3.5193476E-1,-3.529998E-1,-3.4613032E-2,2.4316298E-2,2.0618966E-1,-6.92922E-3,-3.7415504E-1,-4.1634664E-1,-1.2222066E-1,-1.3081853E-1,4.991179E-2,-1.249243E-1,-3.0778357E-1,2.0390274E-1,-2.1369801E-1,1.7300166E-1,-2.4323691E-1,-3.056798E-1,1.13637544E-1,1.7627907E-1,-2.3948984E-2],"categories":[],"categories_nodes":[],"categories_segments":[],"categories_sizes":[],"default_left":[0,0,0,0,0,0,0,0,0,0,0,0,0,0,0,0,0,0,0,0,0,0,0,0,0,0,0,0,0,0,0,0,0,0,0,0,0,0,0,0,0,0,0,0,0,0,0,0,0,0,0,0,0,0,0,0,0,0,0,0,0,0,0,0,0,0,0,0,0,0,0,0,0,0,0,0,0,0,0,0,0,0,0,0,0,0,0,0,0,0,0,0,0],"id":7,"left_children":[1,3,5,7,9,11,13,15,17,19,21,-1,23,25,-1,27,29,31,33,35,37,39,41,43,45,47,49,51,53,55,57,59,61,63,65,67,69,71,73,75,77,79,81,83,85,87,-1,-1,-1,89,91,-1,-1,-1,-1,-1,-1,-1,-1,-1,-1,-1,-1,-1,-1,-1,-1,-1,-1,-1,-1,-1,-1,-1,-1,-1,-1,-1,-1,-1,-1,-1,-1,-1,-1,-1,-1,-1,-1,-1,-1,-1,-1],"loss_changes":[3.656817E1,1.7096922E1,7.7974358E0,1.3801018E1,8.615238E0,2.8356133E0,3.7973287E0,1.3848594E1,6.894198E0,1.4744671E1,6.6822195E0,0E0,2.3370495E0,2.505212E0,0E0,1.0165812E1,1.0628777E1,2.7081604E0,4.169751E0,3.674378E0,6.421156E0,5.4074836E0,8.028437E0,2.4014988E0,1.5853081E0,1.9874511E0,5.0233912E0,7.7258186E0,8.072369E0,1.0839733E1,7.4019375E0,1.9878212E0,2.2808647E0,7.973671E0,7.101386E0,1.0461664E1,4.5110908E0,4.9193683E0,1.2640495E0,5.2154856E0,8.36967E0,2.9766254E0,4.1874614E0,1.9880619E0,3.332851E0,2.7351532E0,0E0,0E0,0E0,2.816291E0,2.888794E0,0E0,0E0,0E0,0E0,0E0,0E0,0E0,0E0,0E0,0E0,0E0,0E0,0E0,0E0,0E0,0E0,0E0,0E0,0E0,0E0,0E0,0E0,0E0,0E0,0E0,0E0,0E0,0E0,0E0,0E0,0E0,0E0,0E0,0E0,0E0,0E0,0E0,0E0,0E0,0E0,0E0,0E0],"parents":[2147483647,0,0,1,1,2,2,3,3,4,4,5,5,6,6,7,7,8,8,9,9,10,10,12,12,13,13,15,15,16,16,17,17,18,18,19,19,20,20,21,21,22,22,23,23,24,24,25,25,26,26,27,27,28,28,29,29,30,30,31,31,32,32,33,33,34,34,35,35,36,36,37,37,38,38,39,39,40,40,41,41,42,42,43,43,44,44,45,45,49,49,50,50],"right_children":[2,4,6,8,10,12,14,16,18,20,22,-1,24,26,-1,28,30,32,34,36,38,40,42,44,46,48,50,52,54,56,58,60,62,64,66,68,70,72,74,76,78,80,82,84,86,88,-1,-1,-1,90,92,-1,-1,-1,-1,-1,-1,-1,-1,-1,-1,-1,-1,-1,-1,-1,-1,-1,-1,-1,-1,-1,-1,-1,-1,-1,-1,-1,-1,-1,-1,-1,-1,-1,-1,-1,-1,-1,-1,-1,-1,-1,-1],"split_conditions":[1E0,1E0,1.2748306E0,1.1236457E0,-4.453624E-1,5.532302E-1,2.5054593E0,1E0,1.6703135E0,-8.259252E-1,5.351602E-1,-3.0936497E-1,1.5718292E0,1E0,-2.7267572E-1,-9.101479E-1,1E0,1.1643896E0,1E0,1E0,-1.5024085E0,1E0,1E0,1.5310853E0,1E0,1.4842453E0,1E0,-1.5140426E0,5.532302E-1,9.773286E-1,1.1285726E0,1E0,1E0,1.5310853E0,1.5310853E0,-6.315089E-1,-1.4907743E0,1E0,1E0,-6.101642E-2,3.420745E-1,1.0014138E0,1.1385448E0,1.4905075E0,1E0,1E0,-2.9100507E-1,-3.0873114E-1,6.3512065E-2,2.4002361E0,1.4692872E0,-4.048632E-1,6.373205E-2,-8.715934E-2,8.6091414E-2,5.8783237E-2,1.6324419E-1,-6.641516E-2,9.358735E-2,1.327756E-1,-2.0574468E-1,-4.055594E-1,-1.296406E-1,1.04969025E-1,-2.804189E-1,-2.851747E-1,1.7481819E-1,-1.7357218E-1,2.2149046E-1,2.9931903E-1,-1.5456427E-2,-2.2964379E-1,3.5193476E-1,-3.529998E-1,-3.4613032E-2,2.4316298E-2,2.0618966E-1,-6.92922E-3,-3.7415504E-1,-4.1634664E-1,-1.2222066E-1,-1.3081853E-1,4.991179E-2,-1.249243E-1,-3.0778357E-1,2.0390274E-1,-2.1369801E-1,1.7300166E-1,-2.4323691E-1,-3.056798E-1,1.13637544E-1,1.7627907E-1,-2.3948984E-2],"split_indices":[26,2,6,3,6,3,7,5,7,7,7,0,3,10,0,7,20,3,14,5,6,8,10,3,4,6,5,6,3,6,6,10,27,3,3,6,6,29,0,7,7,3,6,7,5,20,0,0,0,7,6,0,0,0,0,0,0,0,0,0,0,0,0,0,0,0,0,0,0,0,0,0,0,0,0,0,0,0,0,0,0,0,0,0,0,0,0,0,0,0,0,0,0],"split_type":[0,0,0,0,0,0,0,0,0,0,0,0,0,0,0,0,0,0,0,0,0,0,0,0,0,0,0,0,0,0,0,0,0,0,0,0,0,0,0,0,0,0,0,0,0,0,0,0,0,0,0,0,0,0,0,0,0,0,0,0,0,0,0,0,0,0,0,0,0,0,0,0,0,0,0,0,0,0,0,0,0,0,0,0,0,0,0,0,0,0,0,0,0],"sum_hessian":[1.4178972E3,1.2848635E3,1.3303375E2,1.0038128E3,2.8105072E2,9.359245E1,3.944129E1,9.4343195E2,6.038087E1,9.0582436E1,1.9046828E2,1.8036846E1,7.555561E1,3.497642E1,4.464871E0,3.0189944E2,6.415325E2,1.8603466E1,4.1777405E1,5.936888E1,3.1213552E1,1.319512E2,5.8517086E1,5.40033E1,2.155231E1,4.366833E0,3.0609589E1,1.22772316E2,1.7912712E2,5.217803E2,1.1975218E2,4.291289E0,1.4312177E1,2.8098404E1,1.3679001E1,3.648972E1,2.2879158E1,3.3013563E0,2.7912197E1,6.705625E1,6.489494E1,1.4052731E1,4.4464355E1,4.8674503E1,5.3287973E0,3.7748275E0,1.7777483E1,2.8700323E0,1.496801E0,5.7370167E0,2.4872572E1,2.2641428E0,1.2050818E2,1.5117717E2,2.7949951E1,4.0730353E2,1.14476776E2,8.303528E1,3.671691E1,2.267094E0,2.0241947E0,8.785019E0,5.5271573E0,2.3043236E1,5.0551677E0,1.032349E1,3.355511E0,2.9900345E1,6.589376E0,4.219422E0,1.8659737E1,1.6048452E0,1.696511E0,2.6502106E1,1.4100906E0,4.7646717E1,1.9409536E1,5.9728138E1,5.1668034E0,7.196225E0,6.856506E0,2.0880745E1,2.358361E1,4.2665634E1,6.0088696E0,3.518166E0,1.8106315E0,1.6973999E0,2.0774276E0,4.3617144E0,1.3753023E0,1.3568699E1,1.1303873E1],"tree_param":{"num_deleted":"0","num_feature":"30","num_nodes":"93","size_leaf_vector":"1"}},{"base_weights":[-1.4521232E-2,2.5243253E-2,-4.3365267E-1,-2.6469627E-2,2.192462E-1,-8.053863E-1,-2.7800864E-1,-2.8297982E-1,1.2962083E-2,2.858936E-1,-3.9250526E-1,-4.18825E-1,-9.203286E-1,5.026709E-1,-3.4690917E-1,-2.189301E-1,-3.422624E-1,1.9610599E-1,-7.265073E-2,6.609325E-1,2.0920926E-1,-8.024004E-1,-1.2757021E-1,4.0944195E-1,-2.7376965E-1,-3.0326074E-1,-6.0990864E-1,6.626115E-1,-1.1639E-1,-3.0096135E-1,-2.3575976E-1,4.7893643E-2,-3.8421148E-1,2.698198E-1,-2.7756745E-1,-1.9660465E-1,3.3715144E-2,4.6155304E-1,3.0233574E-1,-2.1143427E-1,2.9181507E-1,-1.1962956E0,3.4060847E-2,2.0102142E-1,-6.01199E-1,-2.0874879E-1,4.460246E-1,-2.671487E-1,5.124371E-2,-2.243484E-1,4.315315E-1,-7.549829E-2,-8.132902E-1,-1.9427402E-2,1.6753078E-1,-4.076251E-2,-1.9013229E-1,1.09640494E-1,1.1803503E-2,-2.839874E-2,-2.759728E-1,-4.126553E-2,-2.207245E-1,6.288581E-2,-2.3847781E-2,1.9200033E-1,-3.4924856E-1,-1.0656176E-1,2.6072833E-1,2.1777922E-1,5.4125156E-2,-3.510489E-2,-4.3696412E-1,1.6218984E-1,-1.3251467E-1,-2.9077584E-1,1.5753362E-1,-2.5298113E-1,1.1586958E-1,2.4301232E-1,-1.851147E-1,2.0185864E-1,-3.1082814E-3,4.4118533E-1,-4.4135764E-2,-8.394319E-2,-2.9673436E-1],"categories":[],"categories_nodes":[],"categories_segments":[],"categories_sizes":[],"default_left":[0,0,0,0,0,0,0,0,0,0,0,0,0,0,0,0,0,0,0,0,0,0,0,0,0,0,0,0,0,0,0,0,0,0,0,0,0,0,0,0,0,0,0,0,0,0,0,0,0,0,0,0,0,0,0,0,0,0,0,0,0,0,0,0,0,0,0,0,0,0,0,0,0,0,0,0,0,0,0,0,0,0,0,0,0,0,0],"id":8,"left_children":[1,3,5,7,9,11,13,15,17,19,21,23,25,27,29,31,-1,33,35,37,39,41,43,45,-1,-1,47,-1,49,-1,51,53,55,57,59,61,63,65,-1,67,69,71,73,75,77,-1,-1,-1,79,-1,81,83,85,-1,-1,-1,-1,-1,-1,-1,-1,-1,-1,-1,-1,-1,-1,-1,-1,-1,-1,-1,-1,-1,-1,-1,-1,-1,-1,-1,-1,-1,-1,-1,-1,-1,-1],"loss_changes":[2.2938438E1,1.2620607E1,6.676218E0,1.00542E1,1.0906007E1,1.154995E0,4.7781854E0,7.0275726E0,1.3533419E1,6.7441235E0,2.7678018E0,4.3736777E0,1.1107063E-1,8.019283E0,5.5437984E0,5.507972E0,0E0,9.674501E0,7.7629113E0,2.3122501E0,7.016302E0,3.3972015E0,2.804336E0,6.2062445E0,0E0,0E0,1.5977926E0,0E0,2.5171509E0,0E0,6.331518E0,2.825682E0,4.6844654E0,5.2413864E0,4.320654E0,8.55329E0,6.3384786E0,8.678669E0,0E0,5.5024767E0,7.979575E0,1.7826777E0,1.2591949E0,4.654227E0,2.0737677E0,0E0,0E0,0E0,2.2434847E0,0E0,4.3674272E-1,6.325545E0,1.1209383E0,0E0,0E0,0E0,0E0,0E0,0E0,0E0,0E0,0E0,0E0,0E0,0E0,0E0,0E0,0E0,0E0,0E0,0E0,0E0,0E0,0E0,0E0,0E0,0E0,0E0,0E0,0E0,0E0,0E0,0E0,0E0,0E0,0E0,0E0],"parents":[2147483647,0,0,1,1,2,2,3,3,4,4,5,5,6,6,7,7,8,8,9,9,10,10,11,11,12,12,13,13,14,14,15,15,17,17,18,18,19,19,20,20,21,21,22,22,23,23,26,26,28,28,30,30,31,31,32,32,33,33,34,34,35,35,36,36,37,37,39,39,40,40,41,41,42,42,43,43,44,44,48,48,50,50,51,51,52,52],"right_children":[2,4,6,8,10,12,14,16,18,20,22,24,26,28,30,32,-1,34,36,38,40,42,44,46,-1,-1,48,-1,50,-1,52,54,56,58,60,62,64,66,-1,68,70,72,74,76,78,-1,-1,-1,80,-1,82,84,86,-1,-1,-1,-1,-1,-1,-1,-1,-1,-1,-1,-1,-1,-1,-1,-1,-1,-1,-1,-1,-1,-1,-1,-1,-1,-1,-1,-1,-1,-1,-1,-1,-1,-1],"split_conditions":[1E0,1E0,7.05898E-2,-1.4591959E0,1.0829017E0,-1.4957604E0,-2.143413E-1,-1.4691681E0,-8.0525553E-1,-1.1580162E0,1.3273655E0,1E0,1E0,1.0829017E0,9.602443E-1,-9.896278E-1,-3.422624E-1,1E0,1E0,3.2747793E-1,-6.8531877E-1,1.2931128E0,2.0804856E0,-5.4429317E-1,-2.7376965E-1,-3.0326074E-1,-1.317924E0,6.626115E-1,1E0,-3.0096135E-1,1.6125733E0,-9.9829715E-1,-1.4924363E0,1E0,1E0,8.493529E-1,-2.61649E-1,2.4271479E-1,3.0233574E-1,8.227605E-1,-4.562101E-1,1.1236457E0,1.3180431E0,1E0,1.52912E0,-2.0874879E-1,4.460246E-1,-2.671487E-1,-3.5491344E-1,-2.243484E-1,1E0,1.8454403E-1,1E0,-1.9427402E-2,1.6753078E-1,-4.076251E-2,-1.9013229E-1,1.09640494E-1,1.1803503E-2,-2.839874E-2,-2.759728E-1,-4.126553E-2,-2.207245E-1,6.288581E-2,-2.3847781E-2,1.9200033E-1,-3.4924856E-1,-1.0656176E-1,2.6072833E-1,2.1777922E-1,5.4125156E-2,-3.510489E-2,-4.3696412E-1,1.6218984E-1,-1.3251467E-1,-2.9077584E-1,1.5753362E-1,-2.5298113E-1,1.1586958E-1,2.4301232E-1,-1.851147E-1,2.0185864E-1,-3.1082814E-3,4.4118533E-1,-4.4135764E-2,-8.394319E-2,-2.9673436E-1],"split_indices":[26,0,7,6,3,6,6,6,7,3,3,1,5,3,7,7,0,14,22,6,7,6,7,7,0,0,6,0,28,0,3,7,6,29,1,6,3,6,0,6,7,3,6,10,6,0,0,0,7,0,5,6,20,0,0,0,0,0,0,0,0,0,0,0,0,0,0,0,0,0,0,0,0,0,0,0,0,0,0,0,0,0,0,0,0,0,0],"split_type":[0,0,0,0,0,0,0,0,0,0,0,0,0,0,0,0,0,0,0,0,0,0,0,0,0,0,0,0,0,0,0,0,0,0,0,0,0,0,0,0,0,0,0,0,0,0,0,0,0,0,0,0,0,0,0,0,0,0,0,0,0,0,0,0,0,0,0,0,0,0,0,0,0,0,0,0,0,0,0,0,0,0,0,0,0,0,0],"sum_hessian":[1.3746594E3,1.2564E3,1.1825936E2,9.9266235E2,2.6373773E2,3.3669647E1,8.4589714E1,1.3144077E2,8.6122156E2,2.3830789E2,2.542984E1,8.781259E0,2.4888386E1,6.349613E0,7.8240105E1,1.2347725E2,7.9635115E0,2.7393216E2,5.872894E2,3.9161655E1,1.9914624E2,9.187185E0,1.6242655E1,3.3433712E0,5.437888E0,1.7521435E1,7.3669524E0,1.0069064E0,5.3427067E0,1.0169182E1,6.807092E1,4.7502045E1,7.5975204E1,2.3741554E2,3.651662E1,2.7082913E2,3.164603E2,2.6347294E1,1.2814359E1,3.2432846E1,1.667134E2,5.9534698E0,3.2337155E0,9.929436E0,6.313219E0,1.8250498E0,1.5183213E0,4.9284706E0,2.4384818E0,2.312677E0,3.0300298E0,5.4169823E1,1.3901098E1,3.963066E1,7.871385E0,3.8855297E1,3.7119907E1,1.6737016E2,7.004539E1,2.9316267E1,7.200352E0,2.452246E2,2.5604544E1,1.2358307E2,1.9287721E2,2.4287664E1,2.0596306E0,2.921664E1,3.216203E0,3.291759E1,1.337958E2,1.4383144E0,4.5151553E0,1.5001493E0,1.7335663E0,1.7217181E0,8.207718E0,5.187488E0,1.1257313E0,1.042591E0,1.3958908E0,1.6216922E0,1.4083375E0,1.5334361E0,5.2636387E1,4.0882144E0,9.812884E0],"tree_param":{"num_deleted":"0","num_feature":"30","num_nodes":"87","size_leaf_vector":"1"}},{"base_weights":[-1.2103102E-2,1.8232025E-2,-3.5641047E-1,2.3998299E-1,-1.3847323E-2,-5.7066983E-1,-1.0088895E-1,1.5153819E-2,5.6108516E-1,2.5283096E-2,-1.8961623E-1,-4.65899E-1,-2.927175E-1,-3.0461242E-3,-5.850105E-1,1.14899576E-1,-1.1698474E0,5.967475E-1,-2.1206188E-1,6.7876525E-2,-1.3438538E-1,-3.4449098E-1,2.712091E-1,-7.4198943E-1,-7.135518E-2,9.496903E-2,-7.2189003E-1,9.081201E-3,-2.6591122E-1,-7.017145E-2,3.7055308E-1,-1.6254711E-1,-6.712189E-1,7.8020275E-1,4.6297914E-1,-2.4308173E-1,1.7743312E-1,2.6601642E-1,2.3401791E-2,-5.011367E-1,-4.5805085E-2,-4.2609307E-1,3.9183784E-1,4.1857645E-1,-3.3935657E-1,-2.9314944E-1,-4.8822725E-1,8.117037E-1,-2.300583E-1,-6.142874E-2,6.7939675E-1,-8.059952E-2,-2.7931777E-1,-1.8285546E-1,1.6070276E-1,-4.3065175E-2,2.8600702E-1,2.2652112E-1,6.271192E-2,1.5326352E-1,-2.1763848E-1,2.7176848E-1,-2.207319E-3,-1.1285215E-1,1.801755E-1,1.17418155E-1,-5.0866242E-2,-1.09285824E-1,2.6673164E-2,3.783749E-2,-2.8807086E-1,1.5776323E-1,-3.2848306E-2,3.621415E-3,-1.5687898E-1,1.9569588E-1,-1.8560614E-1,3.2183546E-1,8.7440416E-2,1.7402694E-1,-2.89486E-1,-1.7118666E-1,5.0370276E-1,-1.2546644E-1,2.4327458E-1,9.672318E-2,-9.547165E-2,4.9493763E-1,2.174293E-2],"categories":[],"categories_nodes":[],"categories_segments":[],"categories_sizes":[],"default_left":[0,0,0,0,0,0,0,0,0,0,0,0,0,0,0,0,0,0,0,0,0,0,0,0,0,0,0,0,0,0,0,0,0,0,0,0,0,0,0,0,0,0,0,0,0,0,0,0,0,0,0,0,0,0,0,0,0,0,0,0,0,0,0,0,0,0,0,0,0,0,0,0,0,0,0,0,0,0,0,0,0,0,0,0,0,0,0,0,0],"id":9,"left_children":[1,3,5,7,9,11,13,15,17,19,21,23,-1,25,27,29,31,33,35,37,39,41,43,45,47,49,51,53,-1,55,57,59,-1,61,63,-1,-1,65,67,69,71,73,75,77,-1,-1,79,81,83,85,87,-1,-1,-1,-1,-1,-1,-1,-1,-1,-1,-1,-1,-1,-1,-1,-1,-1,-1,-1,-1,-1,-1,-1,-1,-1,-1,-1,-1,-1,-1,-1,-1,-1,-1,-1,-1,-1,-1],"loss_changes":[1.398824E1,8.761731E0,5.8793306E0,1.1228859E1,7.4092693E0,2.0394058E0,2.398481E0,1.107738E1,1.8932648E0,6.0034633E0,1.4092352E1,5.2415676E0,0E0,3.1094158E0,1.5323842E0,4.1093807E0,7.4618816E0,1.1483402E0,2.1918783E0,6.131177E0,6.017945E0,9.014431E0,1.078587E1,1.2230768E0,3.1460662E0,3.5940118E0,2.518158E-1,1.5823575E0,0E0,3.9599879E0,2.102787E0,2.1987925E0,0E0,2.429905E0,4.617717E0,0E0,0E0,7.0333548E0,1.4505841E1,1.0509496E1,5.5509315E0,5.6510754E0,4.407534E0,3.5027723E0,0E0,0E0,8.5563545E0,5.0795536E0,3.9977698E0,3.2151947E0,4.7614164E0,0E0,0E0,0E0,0E0,0E0,0E0,0E0,0E0,0E0,0E0,0E0,0E0,0E0,0E0,0E0,0E0,0E0,0E0,0E0,0E0,0E0,0E0,0E0,0E0,0E0,0E0,0E0,0E0,0E0,0E0,0E0,0E0,0E0,0E0,0E0,0E0,0E0,0E0],"parents":[2147483647,0,0,1,1,2,2,3,3,4,4,5,5,6,6,7,7,8,8,9,9,10,10,11,11,13,13,14,14,15,15,16,16,17,17,18,18,19,19,20,20,21,21,22,22,23,23,24,24,25,25,26,26,27,27,29,29,30,30,31,31,33,33,34,34,37,37,38,38,39,39,40,40,41,41,42,42,43,43,46,46,47,47,48,48,49,49,50,50],"right_children":[2,4,6,8,10,12,14,16,18,20,22,24,-1,26,28,30,32,34,36,38,40,42,44,46,48,50,52,54,-1,56,58,60,-1,62,64,-1,-1,66,68,70,72,74,76,78,-1,-1,80,82,84,86,88,-1,-1,-1,-1,-1,-1,-1,-1,-1,-1,-1,-1,-1,-1,-1,-1,-1,-1,-1,-1,-1,-1,-1,-1,-1,-1,-1,-1,-1,-1,-1,-1,-1,-1,-1,-1,-1,-1],"split_conditions":[1E0,-1.2395041E0,9.490742E-1,-4.8525092E-1,1E0,5.0032824E-1,1.6125733E0,-6.1488867E-1,1E0,1E0,1E0,7.05898E-2,-2.927175E-1,1E0,1.311395E0,1E0,1E0,1.7457189E-1,3.5240826E-1,-4.603206E-1,-4.453624E-1,1E0,7.162061E-1,8.38438E-1,3.420745E-1,2.3499627E0,1E0,1.2748306E0,-2.6591122E-1,-6.315089E-1,1E0,1E0,-6.712189E-1,1E0,1.9617818E-1,-2.4308173E-1,1.7743312E-1,-5.79292E-2,1.7124784E-1,-8.5550684E-1,-1.7777681E-1,-1.4924363E0,1E0,-3.173867E-1,-3.3935657E-1,-2.9314944E-1,1.1236457E0,1E0,1E0,1E0,1.4903413E0,-8.059952E-2,-2.7931777E-1,-1.8285546E-1,1.6070276E-1,-4.3065175E-2,2.8600702E-1,2.2652112E-1,6.271192E-2,1.5326352E-1,-2.1763848E-1,2.7176848E-1,-2.207319E-3,-1.1285215E-1,1.801755E-1,1.17418155E-1,-5.0866242E-2,-1.09285824E-1,2.6673164E-2,3.783749E-2,-2.8807086E-1,1.5776323E-1,-3.2848306E-2,3.621415E-3,-1.5687898E-1,1.9569588E-1,-1.8560614E-1,3.2183546E-1,8.7440416E-2,1.7402694E-1,-2.89486E-1,-1.7118666E-1,5.0370276E-1,-1.2546644E-1,2.4327458E-1,9.672318E-2,-9.547165E-2,4.9493763E-1,2.174293E-2],"split_indices":[26,3,6,6,29,6,3,6,27,2,22,7,0,0,6,5,28,6,6,6,6,0,3,3,7,7,14,6,0,6,4,8,0,14,6,0,0,3,6,7,6,6,18,6,0,0,3,4,0,1,3,0,0,0,0,0,0,0,0,0,0,0,0,0,0,0,0,0,0,0,0,0,0,0,0,0,0,0,0,0,0,0,0,0,0,0,0,0,0],"split_type":[0,0,0,0,0,0,0,0,0,0,0,0,0,0,0,0,0,0,0,0,0,0,0,0,0,0,0,0,0,0,0,0,0,0,0,0,0,0,0,0,0,0,0,0,0,0,0,0,0,0,0,0,0,0,0,0,0,0,0,0,0,0,0,0,0,0,0,0,0,0,0,0,0,0,0,0,0,0,0,0,0,0,0,0,0,0,0,0,0],"sum_hessian":[1.3376565E3,1.2302157E3,1.0744084E2,1.5465692E2,1.0755587E3,5.776799E1,4.9672855E1,9.158098E1,6.307594E1,8.804135E2,1.9514523E2,4.760482E1,1.016317E1,4.215871E1,7.5141444E0,8.53037E1,6.277277E0,6.0512863E1,2.563076E0,6.9546497E2,1.8494852E2,1.4624686E2,4.8898376E1,2.748852E1,2.01163E1,3.7863823E1,4.294887E0,2.855254E0,4.6588907E0,4.9903446E1,3.540026E1,3.822637E0,2.45464E0,2.3479574E1,3.7033287E1,1.4644043E0,1.0986718E0,1.26575554E2,5.6888947E2,3.5073856E1,1.4987466E2,1.3203561E2,1.4211241E1,4.4883442E1,4.014934E0,1.2787204E1,1.4701316E1,2.4377155E0,1.7678585E1,3.0576252E1,7.2875705E0,2.0776033E0,2.217284E0,1.2405217E0,1.6147323E0,4.736732E1,2.5361242E0,9.384194E0,2.6016066E1,1.7825627E0,2.0400743E0,2.0118473E1,3.3611007E0,4.9730067E0,3.206028E1,9.836342E1,2.8212137E1,8.157267E1,4.8731677E2,1.5128819E1,1.9945038E1,1.4295911E1,1.3557875E2,2.405729E1,1.07978325E2,1.1580599E1,2.6306415E0,6.0914946E0,3.8791946E1,4.4692197E0,1.0232097E1,1.0716989E0,1.3660165E0,1.5478907E1,2.1996791E0,1.2154369E1,1.8421883E1,2.1429465E0,5.144624E0],"tree_param":{"num_deleted":"0","num_feature":"30","num_nodes":"89","size_leaf_vector":"1"}},{"base_weights":[-9.861421E-3,3.030535E-3,-5.266558E-1,3.4287017E-2,-2.0349047E-1,-7.695495E-1,-1.5140472E-1,8.71505E-2,-1.0905082E-1,-8.731301E-2,-5.2571106E-1,-2.86196E-1,-2.3892884E-1,-6.355148E-1,1.9703202E-1,1.4952058E-1,-1.257962E-1,-1.9406933E-1,1.6665694E-1,-1.1967834E-1,5.1952803E-1,-9.810227E-1,-2.6925725E-1,2.0794083E-1,-2.3650374E-1,-2.799525E-1,4.7330923E-2,5.7173777E-1,-4.4057855E-1,1.8997262E-1,-9.63163E-2,-1.576492E-1,4.810332E-1,-2.1931235E-2,-3.7072018E-1,4.9950296E-1,-1.3569261E-1,-6.8792984E-2,-9.795469E-1,-3.2872313E-1,-2.282426E-1,1.5684268E0,-4.8441434E-1,1.857204E-1,-6.888732E-2,1.0001298E0,-6.90977E-2,-2.219065E-1,4.829974E-2,1.4035656E-1,4.537372E-2,-4.858991E-2,3.358448E-1,-2.6409565E-2,-2.1426028E-1,-3.076064E-1,3.543592E-1,-3.92788E-2,1.4803538E-1,-2.0848008E-1,-5.2206825E-2,4.1991547E-3,3.0418873E-1,-1.5275286E-1,8.130941E-2,-2.7555367E-2,2.2459339E-1,-3.975276E-1,-3.0072577E-2,1.08541206E-1,-2.1077554E-1,5.847549E-1,1.5153044E-1,-2.5301152E-1,-2.8924156E-2,4.1223535E-1,-1.3910168E-2],"categories":[],"categories_nodes":[],"categories_segments":[],"categories_sizes":[],"default_left":[0,0,0,0,0,0,0,0,0,0,0,0,0,0,0,0,0,0,0,0,0,0,0,0,0,0,0,0,0,0,0,0,0,0,0,0,0,0,0,0,0,0,0,0,0,0,0,0,0,0,0,0,0,0,0,0,0,0,0,0,0,0,0,0,0,0,0,0,0,0,0,0,0,0,0,0,0],"id":10,"left_children":[1,3,5,7,9,11,13,15,17,19,21,-1,23,25,27,29,31,33,35,37,-1,39,41,43,-1,-1,-1,45,47,49,51,53,55,57,59,61,63,65,67,-1,69,71,73,-1,-1,75,-1,-1,-1,-1,-1,-1,-1,-1,-1,-1,-1,-1,-1,-1,-1,-1,-1,-1,-1,-1,-1,-1,-1,-1,-1,-1,-1,-1,-1,-1,-1],"loss_changes":[8.721602E0,8.256362E0,2.7874851E0,8.426596E0,6.248208E0,1.6409731E0,2.4470127E0,1.0804523E1,7.058305E0,7.5535426E0,4.9153156E0,0E0,1.7008154E0,1.5633667E0,2.3464868E0,6.269209E0,3.6423361E0,6.9723005E0,7.2313004E0,5.3377237E0,0E0,1.0974627E0,1.2524021E1,9.055068E-1,0E0,0E0,0E0,2.2772253E0,8.0462986E-1,5.7414684E0,7.323344E0,6.7588124E0,1.1177202E1,6.6554875E0,7.099984E0,8.502107E0,5.9235153E0,2.2873583E0,1.9413028E0,0E0,1.1852676E0,3.7355995E-1,3.7347083E0,0E0,0E0,1.6567469E0,0E0,0E0,0E0,0E0,0E0,0E0,0E0,0E0,0E0,0E0,0E0,0E0,0E0,0E0,0E0,0E0,0E0,0E0,0E0,0E0,0E0,0E0,0E0,0E0,0E0,0E0,0E0,0E0,0E0,0E0,0E0],"parents":[2147483647,0,0,1,1,2,2,3,3,4,4,5,5,6,6,7,7,8,8,9,9,10,10,12,12,13,13,14,14,15,15,16,16,17,17,18,18,19,19,21,21,22,22,23,23,27,27,28,28,29,29,30,30,31,31,32,32,33,33,34,34,35,35,36,36,37,37,38,38,40,40,41,41,42,42,45,45],"right_children":[2,4,6,8,10,12,14,16,18,20,22,-1,24,26,28,30,32,34,36,38,-1,40,42,44,-1,-1,-1,46,48,50,52,54,56,58,60,62,64,66,68,-1,70,72,74,-1,-1,76,-1,-1,-1,-1,-1,-1,-1,-1,-1,-1,-1,-1,-1,-1,-1,-1,-1,-1,-1,-1,-1,-1,-1,-1,-1,-1,-1,-1,-1,-1,-1],"split_conditions":[1.5718292E0,1E0,2.3067925E0,1E0,-5.876007E-1,1E0,1E0,1E0,1E0,-8.3152825E-1,-7.184519E-1,-2.86196E-1,1E0,2.5705786E0,1.4692872E0,1E0,2.1173468E0,-9.867316E-2,5.186105E-1,-1.3528265E0,5.1952803E-1,1E0,-7.077972E-1,1E0,-2.3650374E-1,-2.799525E-1,4.7330923E-2,1.6125733E0,1E0,1E0,1.7452271E0,1.0829017E0,1E0,8.809313E-1,1E0,2.2421128E-1,1.2748306E0,-8.6433053E-1,1E0,-3.2872313E-1,-1.5073946E0,1E0,8.38438E-1,1.857204E-1,-6.888732E-2,1E0,-6.90977E-2,-2.219065E-1,4.829974E-2,1.4035656E-1,4.537372E-2,-4.858991E-2,3.358448E-1,-2.6409565E-2,-2.1426028E-1,-3.076064E-1,3.543592E-1,-3.92788E-2,1.4803538E-1,-2.0848008E-1,-5.2206825E-2,4.1991547E-3,3.0418873E-1,-1.5275286E-1,8.130941E-2,-2.7555367E-2,2.2459339E-1,-3.975276E-1,-3.0072577E-2,1.08541206E-1,-2.1077554E-1,5.847549E-1,1.5153044E-1,-2.5301152E-1,-2.8924156E-2,4.1223535E-1,-1.3910168E-2],"split_indices":[3,12,7,14,3,28,8,20,27,7,7,0,14,7,6,27,7,3,6,6,0,28,7,4,0,0,0,3,25,4,7,3,8,6,1,7,6,7,1,0,6,29,3,0,0,28,0,0,0,0,0,0,0,0,0,0,0,0,0,0,0,0,0,0,0,0,0,0,0,0,0,0,0,0,0,0,0],"split_type":[0,0,0,0,0,0,0,0,0,0,0,0,0,0,0,0,0,0,0,0,0,0,0,0,0,0,0,0,0,0,0,0,0,0,0,0,0,0,0,0,0,0,0,0,0,0,0,0,0,0,0,0,0,0,0,0,0,0,0,0,0,0,0,0,0,0,0,0,0,0,0,0,0,0,0,0,0],"sum_hessian":[1.3078209E3,1.27696E3,3.0860918E1,1.1098245E3,1.6713542E2,1.809656E1,1.2764359E1,8.1108545E2,2.9873907E2,1.2377795E2,4.3357483E1,1.2836782E1,5.259776E0,4.997309E0,7.76705E0,6.2757306E2,1.8351236E2,2.2855647E2,7.018261E1,1.2253204E2,1.2459067E0,1.4603999E1,2.8753483E1,3.24333E0,2.0164464E0,3.5055833E0,1.4917259E0,4.957172E0,2.8098779E0,5.390934E2,8.847969E1,1.7506334E2,8.449018E0,1.16326164E2,1.12230316E2,3.309615E1,3.708646E1,1.16705635E2,5.826409E0,1.2277374E1,2.3266244E0,2.3544178E0,2.6399065E1,1.4583207E0,1.7850093E0,3.0703263E0,1.8868455E0,1.7234052E0,1.0864727E0,6.45852E1,4.7450818E2,8.476916E1,3.710538E0,1.5662926E2,1.8434092E1,2.5335946E0,5.9154224E0,9.663484E1,1.969132E1,4.142202E1,7.08083E1,1.7555693E1,1.5540456E1,1.9201942E1,1.7884518E1,1.143672E2,2.3384287E0,3.8187559E0,2.007653E0,1.1425852E0,1.1840391E0,1.1201963E0,1.2342215E0,1.3103121E1,1.3295945E1,2.031325E0,1.0390012E0],"tree_param":{"num_deleted":"0","num_feature":"30","num_nodes":"77","size_leaf_vector":"1"}},{"base_weights":[-8.425236E-3,1.0387346E-2,-2.4865326E-1,1.7293006E-1,-1.2090239E-2,-2.7876282E-1,-1.7810838E-1,4.852843E-3,4.4196093E-1,-8.348034E-2,7.394846E-2,-3.7229797E-1,1.8361736E-3,7.161765E-2,-1.1071836E0,4.882082E-1,-5.868261E-2,-4.514298E-2,-5.268828E-1,-2.1137972E-1,1.13738135E-1,-2.430607E-1,-2.7437276E-1,7.998477E-1,-6.251163E-2,-7.6254256E-2,2.8929397E-1,-1.8269273E-2,-5.3855914E-1,5.358061E-1,1.5221731E-1,6.512689E-1,-4.943055E-1,-9.370888E-2,2.8042412E-1,-1.0367801E0,-2.5179875E-1,1.766254E-1,-5.404207E-1,-3.9218253E-1,1.21844515E-1,-3.2845354E-1,2.11965E-1,5.1127587E-2,3.0732623E-1,3.5265324E-1,-1.8738987E-1,-1.83893E-3,-2.4789487E-1,6.700533E-2,2.5217375E-1,1.6788052E-1,-3.816411E-2,1.3765244E-1,-1.396468E-1,2.9574403E-1,-2.3999097E-2,-5.6746984E-3,-5.910988E-2,2.111135E-1,5.338085E-4,-3.810436E-1,1.4576542E-1,-1.3900302E-1,1.4232922E-1,-2.9785633E-1,8.601589E-2,9.661143E-3,-3.6871803E-1,1.07389785E-1,1.8102285E-2,2.2631427E-2,-1.4806095E-1,1.3276017E-3,3.082398E-1,-1.9128732E-1,3.158168E-2],"categories":[],"categories_nodes":[],"categories_segments":[],"categories_sizes":[],"default_left":[0,0,0,0,0,0,0,0,0,0,0,0,0,0,0,0,0,0,0,0,0,0,0,0,0,0,0,0,0,0,0,0,0,0,0,0,0,0,0,0,0,0,0,0,0,0,0,0,0,0,0,0,0,0,0,0,0,0,0,0,0,0,0,0,0,0,0,0,0,0,0,0,0,0,0,0,0],"id":11,"left_children":[1,3,5,7,9,-1,11,13,15,17,19,21,23,25,27,29,31,33,35,37,39,41,-1,43,45,47,49,-1,-1,51,53,55,-1,57,59,61,63,65,67,-1,69,71,-1,-1,-1,73,75,-1,-1,-1,-1,-1,-1,-1,-1,-1,-1,-1,-1,-1,-1,-1,-1,-1,-1,-1,-1,-1,-1,-1,-1,-1,-1,-1,-1,-1,-1],"loss_changes":[5.811301E0,4.3605285E0,4.3178716E0,6.5540323E0,6.4490647E0,0E0,3.0006015E0,6.7798758E0,1.3192377E0,9.729136E0,5.430361E0,2.6718278E0,2.3892574E0,2.792739E0,3.6140094E0,7.3620605E-1,7.397707E0,8.393289E0,6.130103E0,7.5806427E0,4.98088E0,3.0467224E0,0E0,3.161447E-1,2.2997336E0,2.7325778E0,1.0856669E0,0E0,0E0,7.7157116E-1,1.679927E0,1.2021912E0,0E0,3.5606437E0,8.130251E0,6.177017E0,4.9697976E0,3.8456903E0,1.2647006E1,0E0,6.035774E0,2.2061324E0,0E0,0E0,0E0,2.418054E0,4.517375E0,0E0,0E0,0E0,0E0,0E0,0E0,0E0,0E0,0E0,0E0,0E0,0E0,0E0,0E0,0E0,0E0,0E0,0E0,0E0,0E0,0E0,0E0,0E0,0E0,0E0,0E0,0E0,0E0,0E0,0E0],"parents":[2147483647,0,0,1,1,2,2,3,3,4,4,6,6,7,7,8,8,9,9,10,10,11,11,12,12,13,13,14,14,15,15,16,16,17,17,18,18,19,19,20,20,21,21,23,23,24,24,25,25,26,26,29,29,30,30,31,31,33,33,34,34,35,35,36,36,37,37,38,38,40,40,41,41,45,45,46,46],"right_children":[2,4,6,8,10,-1,12,14,16,18,20,22,24,26,28,30,32,34,36,38,40,42,-1,44,46,48,50,-1,-1,52,54,56,-1,58,60,62,64,66,68,-1,70,72,-1,-1,-1,74,76,-1,-1,-1,-1,-1,-1,-1,-1,-1,-1,-1,-1,-1,-1,-1,-1,-1,-1,-1,-1,-1,-1,-1,-1,-1,-1,-1,-1,-1,-1],"split_conditions":[1E0,-1.2395041E0,4.3099833E-1,-4.8525092E-1,1E0,-2.7876282E-1,9.490742E-1,-5.0851923E-1,1E0,5.2007157E-1,2.4271479E-1,5.0032824E-1,9.773286E-1,1E0,1E0,1E0,1E0,1.8264966E-2,1E0,-3.173867E-1,-9.388251E-1,4.8370802E-1,-2.7437276E-1,1E0,1.0421578E0,1E0,1E0,-1.8269273E-2,-5.3855914E-1,1E0,1E0,-5.478717E-2,-4.943055E-1,-1.6780467E-1,1.4100333E-1,1.7452271E0,1.304747E0,-9.621418E-1,1E0,-3.9218253E-1,-4.873138E-1,1.0014138E0,2.11965E-1,5.1127587E-2,3.0732623E-1,1.4842453E0,1E0,-1.83893E-3,-2.4789487E-1,6.700533E-2,2.5217375E-1,1.6788052E-1,-3.816411E-2,1.3765244E-1,-1.396468E-1,2.9574403E-1,-2.3999097E-2,-5.6746984E-3,-5.910988E-2,2.111135E-1,5.338085E-4,-3.810436E-1,1.4576542E-1,-1.3900302E-1,1.4232922E-1,-2.9785633E-1,8.601589E-2,9.661143E-3,-3.6871803E-1,1.07389785E-1,1.8102285E-2,2.2631427E-2,-1.4806095E-1,1.3276017E-3,3.082398E-1,-1.9128732E-1,3.158168E-2],"split_indices":[26,3,3,6,10,0,6,6,20,7,6,6,6,5,28,16,24,7,25,6,7,6,0,5,3,27,24,0,0,27,8,6,0,6,7,7,6,7,8,0,7,3,0,0,0,6,8,0,0,0,0,0,0,0,0,0,0,0,0,0,0,0,0,0,0,0,0,0,0,0,0,0,0,0,0,0,0],"split_type":[0,0,0,0,0,0,0,0,0,0,0,0,0,0,0,0,0,0,0,0,0,0,0,0,0,0,0,0,0,0,0,0,0,0,0,0,0,0,0,0,0,0,0,0,0,0,0,0,0,0,0,0,0,0,0,0,0,0,0,0,0,0,0,0,0,0,0,0,0,0,0,0,0,0,0,0,0],"sum_hessian":[1.284311E3,1.1919264E3,9.2384605E1,1.4399054E2,1.0479358E3,7.533737E0,8.485087E1,8.924975E1,5.4740803E1,5.7273883E2,4.75197E2,4.029597E1,4.45549E1,8.507744E1,4.1723094E0,5.0134438E1,4.6063643E0,5.281738E2,4.4565037E1,5.762939E1,4.175676E2,3.3710262E1,6.5857086E0,2.471719E0,4.2083183E1,5.104871E1,3.4028725E1,2.0870192E0,2.0852902E0,4.339256E1,6.741879E0,3.5917456E0,1.0146188E0,4.6023172E2,6.79421E1,1.4646764E1,2.9918274E1,2.6657766E1,3.0971626E1,1.4594953E0,4.161081E2,3.152915E1,2.1811118E0,1.1125114E0,1.3592077E0,9.30944E0,3.2773743E1,4.7606113E1,3.4425993E0,3.1648216E1,2.3805082E0,4.203974E1,1.3528154E0,4.6772957E0,2.0645833E0,2.2255116E0,1.366234E0,2.676621E2,1.9256961E2,2.6365282E1,4.157682E1,1.2844104E1,1.80266E0,2.344959E1,6.468684E0,1.6037414E0,2.5054024E1,1.7430702E1,1.3540923E1,8.499175E1,3.3111633E2,9.305459E0,2.2223692E1,6.804585E0,2.504855E0,1.244678E1,2.0326962E1],"tree_param":{"num_deleted":"0","num_feature":"30","num_nodes":"77","size_leaf_vector":"1"}},{"base_weights":[-7.243443E-3,-1.4990456E-1,1.850428E-2,-1.1101557E-1,-2.9815874E-1,5.950548E-2,-8.586247E-2,-1.34584E-1,6.157541E-1,1.0609475E-1,-9.129881E-2,1.1019842E-1,-2.1074109E-1,-1.792348E-1,5.347033E-1,5.91571E-1,8.240361E-2,-5.436281E-1,-2.6728075E-2,2.1816483E-1,-2.1318837E-1,-4.3579283E-1,-6.331745E-2,-1.0666772E-1,-4.9152747E-1,8.7346244E-1,-2.4974875E-1,7.8535527E-1,-3.0968478E-1,-7.3796284E-1,9.63516E-2,2.874164E-2,-3.963714E-1,6.0005397E-1,-1.24116674E-1,3.7355453E-1,-1.17021985E-1,-7.275969E-1,1.5293235E-1,-2.1507852E-1,-1.1747348E0,3.4423965E-1,-1.723358E-1,-5.142158E-2,1.6775942E-1,-2.642689E-1,-4.5223042E-2,7.172954E-2,2.9582483E-1,2.9814163E-1,1.437018E-1,-6.638427E-2,-4.0344885E-1,3.0518837E-2,-4.253126E-1,-1.303755E-1,2.6681805E-1,2.7929142E-1,-1.21199846E-1,-2.6453063E-1,-1.9687936E-2,3.0985782E-1,3.5496082E-2,-2.4449486E-1,1.1332197E-1,2.8505618E-2,-2.4917693E-1,2.2135973E-1,-1.1407686E-1,-1.8382883E-1,-9.23852E-3,-2.3164994E-1,-4.7266948E-1,1.3754983E-1,-2.9859337E-1,-1.6629967E-1,-1.3653157E-2],"categories":[],"categories_nodes":[],"categories_segments":[],"categories_sizes":[],"default_left":[0,0,0,0,0,0,0,0,0,0,0,0,0,0,0,0,0,0,0,0,0,0,0,0,0,0,0,0,0,0,0,0,0,0,0,0,0,0,0,0,0,0,0,0,0,0,0,0,0,0,0,0,0,0,0,0,0,0,0,0,0,0,0,0,0,0,0,0,0,0,0,0,0,0,0,0,0],"id":12,"left_children":[1,3,5,7,-1,9,11,13,-1,15,17,19,21,23,25,27,29,31,33,35,37,39,41,43,45,47,-1,49,-1,51,53,55,-1,57,59,61,63,65,67,69,71,73,75,-1,-1,-1,-1,-1,-1,-1,-1,-1,-1,-1,-1,-1,-1,-1,-1,-1,-1,-1,-1,-1,-1,-1,-1,-1,-1,-1,-1,-1,-1,-1,-1,-1,-1],"loss_changes":[4.654857E0,6.2484016E0,4.599868E0,9.777552E0,0E0,5.430065E0,7.4482417E0,5.632304E0,0E0,6.735558E0,5.3194747E0,4.1894093E0,6.130411E0,3.9004436E0,6.20982E0,9.396369E0,6.519841E0,1.0168806E1,9.8938675E0,4.70277E0,5.799999E0,1.1700828E1,5.0939918E0,6.25208E0,4.194478E0,4.7687006E-1,0E0,1.1167927E0,0E0,2.6929183E0,4.6635904E0,6.0050354E0,0E0,7.620981E0,6.1489E0,1.0202695E1,1.0355142E1,1.1576996E0,6.0417295E0,4.206772E0,1.4672375E0,4.16758E0,4.3381987E0,0E0,0E0,0E0,0E0,0E0,0E0,0E0,0E0,0E0,0E0,0E0,0E0,0E0,0E0,0E0,0E0,0E0,0E0,0E0,0E0,0E0,0E0,0E0,0E0,0E0,0E0,0E0,0E0,0E0,0E0,0E0,0E0,0E0,0E0],"parents":[2147483647,0,0,1,1,2,2,3,3,5,5,6,6,7,7,9,9,10,10,11,11,12,12,13,13,14,14,15,15,16,16,17,17,18,18,19,19,20,20,21,21,22,22,23,23,24,24,25,25,27,27,29,29,30,30,31,31,33,33,34,34,35,35,36,36,37,37,38,38,39,39,40,40,41,41,42,42],"right_children":[2,4,6,8,-1,10,12,14,-1,16,18,20,22,24,26,28,30,32,34,36,38,40,42,44,46,48,-1,50,-1,52,54,56,-1,58,60,62,64,66,68,70,72,74,76,-1,-1,-1,-1,-1,-1,-1,-1,-1,-1,-1,-1,-1,-1,-1,-1,-1,-1,-1,-1,-1,-1,-1,-1,-1,-1,-1,-1,-1,-1,-1,-1,-1,-1],"split_conditions":[-1.1483978E0,-4.1778266E-1,1E0,-4.2784175E-1,-2.9815874E-1,1E0,3.175058E-1,1E0,6.157541E-1,-6.9798976E-1,-4.453624E-1,1E0,8.809313E-1,-1.3461784E0,-8.3206445E-1,1E0,-6.730594E-1,-8.602055E-1,-1.3456424E-1,4.3099833E-1,-3.340069E-1,7.247012E-1,2.6424903E-1,-1.4591959E0,-1.3146E0,-1.4924363E0,-2.4974875E-1,1E0,-3.0968478E-1,1E0,1.4277366E0,1E0,-3.963714E-1,1E0,4.4934157E-2,-4.8525092E-1,-2.6586398E-1,-1.0038018E0,-6.8531877E-1,-3.887084E-1,1E0,1.386186E0,1.1834193E0,-5.142158E-2,1.6775942E-1,-2.642689E-1,-4.5223042E-2,7.172954E-2,2.9582483E-1,2.9814163E-1,1.437018E-1,-6.638427E-2,-4.0344885E-1,3.0518837E-2,-4.253126E-1,-1.303755E-1,2.6681805E-1,2.7929142E-1,-1.21199846E-1,-2.6453063E-1,-1.9687936E-2,3.0985782E-1,3.5496082E-2,-2.4449486E-1,1.1332197E-1,2.8505618E-2,-2.4917693E-1,2.2135973E-1,-1.1407686E-1,-1.8382883E-1,-9.23852E-3,-2.3164994E-1,-4.7266948E-1,1.3754983E-1,-2.9859337E-1,-1.6629967E-1,-1.3653157E-2],"split_indices":[6,7,14,7,0,20,6,0,0,6,6,29,6,6,3,2,6,7,6,3,6,6,7,6,6,6,0,28,0,28,6,1,0,24,6,6,6,6,7,7,28,6,6,0,0,0,0,0,0,0,0,0,0,0,0,0,0,0,0,0,0,0,0,0,0,0,0,0,0,0,0,0,0,0,0,0,0],"split_type":[0,0,0,0,0,0,0,0,0,0,0,0,0,0,0,0,0,0,0,0,0,0,0,0,0,0,0,0,0,0,0,0,0,0,0,0,0,0,0,0,0,0,0,0,0,0,0,0,0,0,0,0,0,0,0,0,0,0,0,0,0,0,0,0,0,0,0,0,0,0,0,0,0,0,0,0,0],"sum_hessian":[1.2654938E3,1.9274182E2,1.072752E3,1.8533333E2,7.4084883E0,7.704896E2,3.0226233E2,1.8426385E2,1.0694851E0,5.888634E2,1.8162617E2,1.17657005E2,1.8460532E2,1.734261E2,1.0837745E1,2.628402E1,5.625794E2,2.1761806E1,1.5986436E2,8.8451744E1,2.9205261E1,7.229154E1,1.12313774E2,1.4181442E2,3.1611689E1,8.975068E0,1.8626764E0,2.3943108E1,2.3409126E0,8.5373535E0,5.5404205E2,1.3089874E1,8.671932E0,2.0804903E1,1.3905946E2,6.035652E1,2.8095222E1,1.1732915E1,1.7472345E1,5.6659115E1,1.5632427E1,2.3247412E1,8.906637E1,1.2992526E2,1.1889153E1,1.4014389E1,1.75973E1,1.8239913E0,7.151077E0,1.2912792E1,1.1030315E1,5.3483953E0,3.1889582E0,5.530106E2,1.0314498E0,8.830877E0,4.258997E0,1.5702454E1,5.10245E0,8.957189E0,1.3010228E2,1.5994315E1,4.4362206E1,1.1385901E1,1.6709322E1,1.3141418E0,1.0418774E1,8.148822E0,9.3235235E0,1.720518E1,3.9453938E1,9.259346E0,6.3730817E0,2.202635E1,1.2210616E0,2.135986E1,6.7706505E1],"tree_param":{"num_deleted":"0","num_feature":"30","num_nodes":"77","size_leaf_vector":"1"}},{"base_weights":[-7.274194E-3,9.4041805E-4,-4.0064767E-1,-2.3837466E-2,1.01609655E-1,-6.2869817E-1,-1.0464466E-1,1.1712022E-1,-5.807836E-2,4.9002984E-1,5.929152E-2,-8.5883284E-1,-1.03608735E-1,1.7839603E-1,-5.731469E-1,5.2565653E-2,4.7951213E-1,-3.1866625E-2,-2.0657101E-1,9.2173517E-1,-3.258805E-2,-1.033195E-1,2.1842968E-1,-3.912574E-1,-3.024953E-1,-2.1350439E-1,2.5382614E-1,5.383513E-1,-1.9832581E-1,-2.7178448E-1,6.327E-2,3.451179E-1,7.909505E-3,5.7812184E-1,-1.7164555E-1,-5.1955737E-2,4.1161713E-1,-4.9532261E-1,-1.4077868E-1,4.894584E-2,2.951702E-1,-1.1303356E0,3.953491E-1,-3.5658706E-2,-7.3760235E-1,2.5714687E-1,-5.9399784E-1,-2.0002955E-1,5.125705E-2,2.06349E-1,-5.970278E-2,2.4895169E-1,-4.2350706E-2,1.8828875E-1,-2.0022902E-1,-1.4880978E-1,1.6158003E-1,8.577978E-3,-1.3515487E-1,2.1765354E-1,1.3750946E-2,-1.324289E-2,-2.6972273E-1,1.5292184E-1,-2.7891833E-1,-1.528028E-1,-1.5027824E-2,-5.131293E-1,3.6210187E-2,2.1419378E-1,-1.0405447E-1,-1.9017486E-1,3.4567425E-3,-3.4391284E-1,-2.1126252E-2,5.0644126E-2,1.8011667E-1,-3.3189636E-1,2.6795605E-2,1.4383674E-3,8.883399E-2],"categories":[],"categories_nodes":[],"categories_segments":[],"categories_sizes":[],"default_left":[0,0,0,0,0,0,0,0,0,0,0,0,0,0,0,0,0,0,0,0,0,0,0,0,0,0,0,0,0,0,0,0,0,0,0,0,0,0,0,0,0,0,0,0,0,0,0,0,0,0,0,0,0,0,0,0,0,0,0,0,0,0,0,0,0,0,0,0,0,0,0,0,0,0,0,0,0,0,0,0,0],"id":13,"left_children":[1,3,5,7,9,11,13,15,17,19,21,23,25,27,29,31,33,35,37,39,41,43,45,47,-1,-1,49,51,53,-1,-1,55,57,59,-1,61,63,-1,65,-1,-1,67,69,71,73,75,77,-1,-1,-1,-1,-1,-1,79,-1,-1,-1,-1,-1,-1,-1,-1,-1,-1,-1,-1,-1,-1,-1,-1,-1,-1,-1,-1,-1,-1,-1,-1,-1,-1,-1],"loss_changes":[4.0419655E0,3.060854E0,1.6613727E0,4.759773E0,3.9548624E0,1.6332803E0,1.7377925E0,4.485024E0,3.0798473E0,5.371361E0,5.7078147E0,2.8851175E-1,1.3717431E0,1.2528112E0,1.4650631E0,2.1498213E0,3.341042E0,6.0366755E0,1.1057085E1,4.524727E-1,5.931569E0,4.666225E0,3.6554208E0,7.336028E-1,0E0,0E0,9.600618E-1,1.0265185E0,1.0071516E0,0E0,0E0,3.8144732E0,1.3780006E0,2.0878458E0,0E0,4.241107E0,4.33963E0,0E0,3.8084624E0,0E0,0E0,2.7710962E0,2.409464E0,2.8258097E0,2.7798257E0,3.1424832E0,1.9778636E0,0E0,0E0,0E0,0E0,0E0,0E0,6.672822E-2,0E0,0E0,0E0,0E0,0E0,0E0,0E0,0E0,0E0,0E0,0E0,0E0,0E0,0E0,0E0,0E0,0E0,0E0,0E0,0E0,0E0,0E0,0E0,0E0,0E0,0E0,0E0],"parents":[2147483647,0,0,1,1,2,2,3,3,4,4,5,5,6,6,7,7,8,8,9,9,10,10,11,11,12,12,13,13,14,14,15,15,16,16,17,17,18,18,19,19,20,20,21,21,22,22,23,23,26,26,27,27,28,28,31,31,32,32,33,33,35,35,36,36,38,38,41,41,42,42,43,43,44,44,45,45,46,46,53,53],"right_children":[2,4,6,8,10,12,14,16,18,20,22,24,26,28,30,32,34,36,38,40,42,44,46,48,-1,-1,50,52,54,-1,-1,56,58,60,-1,62,64,-1,66,-1,-1,68,70,72,74,76,78,-1,-1,-1,-1,-1,-1,80,-1,-1,-1,-1,-1,-1,-1,-1,-1,-1,-1,-1,-1,-1,-1,-1,-1,-1,-1,-1,-1,-1,-1,-1,-1,-1,-1],"split_conditions":[1.5718292E0,1.0305133E0,2.3067925E0,-1.1987602E0,-4.4976875E-1,1E0,1.4842453E0,3.5739434E-1,4.2541483E-1,1E0,1E0,1E0,1E0,1.6125733E0,2.6685884E0,1E0,1E0,3.071545E-1,2.2727853E-1,-1.1987602E0,1E0,2.0804856E0,1E0,8.7095916E-1,-3.024953E-1,-2.1350439E-1,-3.4564105E-1,1E0,1E0,-2.7178448E-1,6.327E-2,-1.3312201E0,1E0,1E0,-1.7164555E-1,1.2051336E0,1E0,-4.9532261E-1,3.3745006E-1,4.894584E-2,2.951702E-1,-9.950403E-1,1.2199838E0,-1.122824E-1,1E0,1.3681095E0,1.304747E0,-2.0002955E-1,5.125705E-2,2.06349E-1,-5.970278E-2,2.4895169E-1,-4.2350706E-2,1.4493428E0,-2.0022902E-1,-1.4880978E-1,1.6158003E-1,8.577978E-3,-1.3515487E-1,2.1765354E-1,1.3750946E-2,-1.324289E-2,-2.6972273E-1,1.5292184E-1,-2.7891833E-1,-1.528028E-1,-1.5027824E-2,-5.131293E-1,3.6210187E-2,2.1419378E-1,-1.0405447E-1,-1.9017486E-1,3.4567425E-3,-3.4391284E-1,-2.1126252E-2,5.0644126E-2,1.8011667E-1,-3.3189636E-1,2.6795605E-2,1.4383674E-3,8.883399E-2],"split_indices":[3,6,7,3,7,28,6,6,7,8,8,16,16,3,7,4,2,7,3,3,5,7,29,6,0,0,6,28,14,0,0,6,24,16,0,3,29,0,6,0,0,3,6,7,2,3,6,0,0,0,0,0,0,6,0,0,0,0,0,0,0,0,0,0,0,0,0,0,0,0,0,0,0,0,0,0,0,0,0,0,0],"split_type":[0,0,0,0,0,0,0,0,0,0,0,0,0,0,0,0,0,0,0,0,0,0,0,0,0,0,0,0,0,0,0,0,0,0,0,0,0,0,0,0,0,0,0,0,0,0,0,0,0,0,0,0,0,0,0,0,0,0,0,0,0,0,0,0,0,0,0,0,0,0,0,0,0,0,0,0,0,0,0,0,0],"sum_hessian":[1.2497198E3,1.2251337E3,2.4586216E1,9.8376196E2,2.4137173E2,1.325227E1,1.1333946E1,1.9179385E2,7.919681E2,2.26743E1,2.1869743E2,8.772076E0,4.4801936E0,7.451451E0,3.8824952E0,1.6376643E2,2.8027428E1,6.7417773E2,1.177904E2,1.199895E1,1.0675348E1,1.0834193E2,1.1035551E2,3.0013828E0,5.770693E0,1.2916846E0,3.188509E0,3.5911188E0,3.8603323E0,2.6164315E0,1.2660637E0,2.0796385E1,1.4297005E2,2.6036394E1,1.9910339E0,6.458065E2,2.8371166E1,4.081597E0,1.137088E2,1.1833575E0,1.0815593E1,2.533931E0,8.1414175E0,9.885319E1,9.488738E0,1.0598801E2,4.3674984E0,1.8892401E0,1.1121427E0,1.3631276E0,1.8253813E0,2.3582911E0,1.2328275E0,2.4443939E0,1.4159385E0,3.596619E0,1.7199766E1,1.3769499E2,5.275047E0,2.0106018E1,5.9303756E0,6.409474E2,4.859184E0,2.7014944E1,1.3562235E0,2.1541937E1,9.216686E1,1.480311E0,1.05362E0,5.722661E0,2.4187562E0,6.3170605E0,9.2536125E1,5.438438E0,4.0503E0,8.5481285E1,2.0506727E1,2.1422665E0,2.2252321E0,1.2913167E0,1.1530771E0],"tree_param":{"num_deleted":"0","num_feature":"30","num_nodes":"81","size_leaf_vector":"1"}},{"base_weights":[-6.7663505E-3,-2.119871E-4,-3.513776E-1,-4.070782E-2,5.672404E-2,-2.5849688E-1,-2.1245623E-1,-1.3167254E-2,-3.782279E-1,-1.4862221E-1,9.517811E-2,8.84075E-2,-5.1056725E-1,-2.7771821E-2,5.9098834E-1,-7.28611E-1,-1.6195925E-1,-2.8993696E-1,3.8109124E-1,2.8443454E-2,2.5167972E-1,-5.451147E-1,4.6456167E-1,-2.5961065E-1,-1.9587682E-1,9.457423E-2,-7.1337104E-2,8.85345E-1,3.8115185E-2,-8.734821E-1,2.2139278E-1,1.4480187E-1,-5.368613E-1,-8.7742E-2,-7.632913E-1,7.106056E-1,-3.0503014E-1,-3.913537E-2,1.7146331E-1,3.9809325E-1,-1.4648224E-1,-2.7524143E-1,1.0295249E-1,2.4270429E-1,-8.3916396E-2,-2.0185347E-1,1.11567095E-1,1.7821971E-2,1.4656858E-1,-4.559564E-2,-1.0050803E-3,5.9875727E-2,4.274294E-1,1.576301E-1,-2.8565416E-1,-4.0550724E-1,-1.1150576E-1,-3.5017182E-3,1.18939795E-1,1.5258308E-1,-9.941455E-2,5.9547912E-2,-2.4287915E-1,-6.539333E-2,1.270139E-1,-3.63311E-1,-9.237632E-2,2.923015E-1,-2.1058384E-1,-3.3008525E-1,2.2840215E-1,-1.5792592E-3,-2.876328E-1,6.4416E-2,-2.9241556E-1,1.008762E-1,2.661102E-1,6.506543E-2,-1.4651655E-1,2.5898445E-1,-1.2012861E-1],"categories":[],"categories_nodes":[],"categories_segments":[],"categories_sizes":[],"default_left":[0,0,0,0,0,0,0,0,0,0,0,0,0,0,0,0,0,0,0,0,0,0,0,0,0,0,0,0,0,0,0,0,0,0,0,0,0,0,0,0,0,0,0,0,0,0,0,0,0,0,0,0,0,0,0,0,0,0,0,0,0,0,0,0,0,0,0,0,0,0,0,0,0,0,0,0,0,0,0,0,0],"id":14,"left_children":[1,3,5,7,9,-1,11,13,15,17,19,21,23,25,27,29,31,33,35,37,39,41,43,-1,45,47,49,51,53,55,57,59,61,63,65,67,69,71,73,75,77,-1,-1,-1,-1,-1,79,-1,-1,-1,-1,-1,-1,-1,-1,-1,-1,-1,-1,-1,-1,-1,-1,-1,-1,-1,-1,-1,-1,-1,-1,-1,-1,-1,-1,-1,-1,-1,-1,-1,-1],"loss_changes":[2.797354E0,2.8069122E0,1.4555728E0,6.607861E0,4.009645E0,0E0,1.7937882E0,5.829024E0,3.9461298E0,6.113898E0,4.450282E0,2.768712E0,9.403901E-1,3.4402318E0,2.5040202E0,2.9712353E0,4.0395784E0,6.046733E0,4.13293E0,2.9094608E0,7.488658E0,1.7677757E0,2.062716E0,0E0,1.0371296E0,2.3205972E0,2.6072032E0,3.463214E0,3.6191905E0,3.748619E0,1.4615269E-1,3.5872514E0,3.3124986E0,3.1469195E0,3.4987497E0,5.155128E0,6.1968465E0,6.3735027E0,4.996704E0,2.5275326E0,4.454135E0,0E0,0E0,0E0,0E0,0E0,2.2111838E0,0E0,0E0,0E0,0E0,0E0,0E0,0E0,0E0,0E0,0E0,0E0,0E0,0E0,0E0,0E0,0E0,0E0,0E0,0E0,0E0,0E0,0E0,0E0,0E0,0E0,0E0,0E0,0E0,0E0,0E0,0E0,0E0,0E0,0E0],"parents":[2147483647,0,0,1,1,2,2,3,3,4,4,6,6,7,7,8,8,9,9,10,10,11,11,12,12,13,13,14,14,15,15,16,16,17,17,18,18,19,19,20,20,21,21,22,22,24,24,25,25,26,26,27,27,28,28,29,29,30,30,31,31,32,32,33,33,34,34,35,35,36,36,37,37,38,38,39,39,40,40,46,46],"right_children":[2,4,6,8,10,-1,12,14,16,18,20,22,24,26,28,30,32,34,36,38,40,42,44,-1,46,48,50,52,54,56,58,60,62,64,66,68,70,72,74,76,78,-1,-1,-1,-1,-1,80,-1,-1,-1,-1,-1,-1,-1,-1,-1,-1,-1,-1,-1,-1,-1,-1,-1,-1,-1,-1,-1,-1,-1,-1,-1,-1,-1,-1,-1,-1,-1,-1,-1,-1],"split_conditions":[1.5718292E0,1E0,1E0,5.2007157E-1,3.175058E-1,-2.5849688E-1,1E0,3.811196E-1,7.9769397E-1,1E0,1E0,1E0,1E0,-1.1987602E0,4.526361E-1,1E0,1.1643896E0,-4.0981925E-1,1E0,1.1965222E0,1.1497344E0,2.4558918E0,1E0,-2.5961065E-1,2.3067925E0,1E0,-7.184519E-1,1E0,1E0,1E0,1E0,1E0,1E0,-5.0611275E-1,1E0,1E0,6.754621E-1,1.134756E0,1E0,9.849729E-1,1E0,-2.7524143E-1,1.0295249E-1,2.4270429E-1,-8.3916396E-2,-2.0185347E-1,2.3499627E0,1.7821971E-2,1.4656858E-1,-4.559564E-2,-1.0050803E-3,5.9875727E-2,4.274294E-1,1.576301E-1,-2.8565416E-1,-4.0550724E-1,-1.1150576E-1,-3.5017182E-3,1.18939795E-1,1.5258308E-1,-9.941455E-2,5.9547912E-2,-2.4287915E-1,-6.539333E-2,1.270139E-1,-3.63311E-1,-9.237632E-2,2.923015E-1,-2.1058384E-1,-3.3008525E-1,2.2840215E-1,-1.5792592E-3,-2.876328E-1,6.4416E-2,-2.9241556E-1,1.008762E-1,2.661102E-1,6.506543E-2,-1.4651655E-1,2.5898445E-1,-1.2012861E-1],"split_indices":[3,10,22,7,6,0,14,7,3,27,0,26,8,3,7,29,3,7,16,7,7,7,20,0,7,18,7,16,8,25,26,20,1,3,1,25,3,7,29,7,28,0,0,0,0,0,7,0,0,0,0,0,0,0,0,0,0,0,0,0,0,0,0,0,0,0,0,0,0,0,0,0,0,0,0,0,0,0,0,0,0],"split_type":[0,0,0,0,0,0,0,0,0,0,0,0,0,0,0,0,0,0,0,0,0,0,0,0,0,0,0,0,0,0,0,0,0,0,0,0,0,0,0,0,0,0,0,0,0,0,0,0,0,0,0,0,0,0,0,0,0,0,0,0,0,0,0,0,0,0,0,0,0,0,0,0,0,0,0,0,0,0,0,0,0],"sum_hessian":[1.2375087E3,1.2153931E3,2.2115658E1,7.1040295E2,5.0499005E2,3.6192276E0,1.849643E1,6.5777E2,5.263293E1,7.919904E1,4.2579102E2,9.555817E0,8.940613E0,6.431762E2,1.45938015E1,1.9183758E1,3.3449173E1,6.2877502E1,1.6321545E1,2.9933276E2,1.2645826E2,3.392671E0,6.1631455E0,3.379946E0,5.5606666E0,1.6857886E2,4.7459735E2,9.130992E0,5.462809E0,1.6715302E1,2.4684556E0,1.873398E1,1.4715193E1,4.488856E1,1.7988943E1,1.100205E1,5.3194942E0,2.037734E2,9.555934E1,9.245906E1,3.39992E1,2.3674307E0,1.0252404E0,4.153803E0,2.0093427E0,1.7136303E0,3.8470364E0,1.5582094E2,1.2757919E1,2.1651923E2,2.5807816E2,4.623359E0,4.507633E0,3.9757729E0,1.4870362E0,7.6915746E0,9.023727E0,1.4592139E0,1.0092417E0,1.0581514E1,8.152465E0,4.054799E0,1.0660394E1,3.623044E1,8.658122E0,8.233679E0,9.755263E0,9.532499E0,1.4695516E0,3.0288806E0,2.2906134E0,1.9750485E2,6.268554E0,9.286722E1,2.6921253E0,8.357638E1,8.882687E0,1.6659584E1,1.7339613E1,1.2806582E0,2.566378E0],"tree_param":{"num_deleted":"0","num_feature":"30","num_nodes":"81","size_leaf_vector":"1"}},{"base_weights":[-6.518444E-3,3.509702E-2,-5.5933036E-2,1.9218959E-2,5.105944E-1,-2.9487363E-1,-1.7166537E-3,-2.1321578E-2,1.7773701E-1,1.0194453E0,-1.8040986E-1,-2.1167491E-1,-9.6799785E-1,5.880579E-1,-1.8828338E-2,-1.2745622E-2,-5.3203744E-1,-4.0780105E-2,3.3106995E-1,-1.934771E-1,1.2577184E0,-9.7209734E-1,1.9556284E-1,-2.8687367E-1,8.2052076E-1,-1.3423313E0,-3.8507527E-1,1.278117E-1,1.2263457E0,4.62152E-2,-1.3405253E-1,3.191354E-2,-1.2077306E-1,-1.1232234E0,4.147417E-1,-6.703067E-1,8.035308E-2,7.165869E-1,1.7034677E-1,3.6825757E-2,1.4928213E0,1.6945103E-3,-4.3602297E-1,6.5963364E-1,-3.0424792E-1,-3.6330754E-1,-2.2593483E-1,1.0986797E-1,3.7520447E-1,-5.085323E-1,-7.079638E-1,2.4766524E-1,-4.089807E-1,6.0570484E-1,-6.438088E-1,6.394498E-2,4.613867E-1,3.6739781E-1,-1.6559683E-2,-8.386351E-1,-7.84579E-2,1.5029153E-3,7.553976E-2,-4.9697045E-2,1.304454E-1,-5.2593935E-1,-2.734907E-2,-1.0852731E-1,2.4299037E-1,-8.479005E-3,-6.8673766E-1,1.1235013E-1,-4.098569E-2,-7.6332614E-3,2.4061313E-1,-1.6382205E-1,7.6924115E-2,5.7690084E-1,-1.1677282E-2,2.5247648E-1,-2.7292812E-2,-2.768067E-1,-5.2246403E-2,-3.2070887E-1,3.4615266E-1,2.8178124E-2,-3.7134045E-1,1.7297472E-1,-4.594793E-2,-1.677523E-1,3.1502432E-1,1.049042E-1,-4.47395E-1,2.717528E-1,3.976159E-4,-1.5075254E-1,9.645277E-3,-3.503268E-1,-8.818124E-2,2.411141E-1,-3.335679E-2],"categories":[],"categories_nodes":[],"categories_segments":[],"categories_sizes":[],"default_left":[0,0,0,0,0,0,0,0,0,0,0,0,0,0,0,0,0,0,0,0,0,0,0,0,0,0,0,0,0,0,0,0,0,0,0,0,0,0,0,0,0,0,0,0,0,0,0,0,0,0,0,0,0,0,0,0,0,0,0,0,0,0,0,0,0,0,0,0,0,0,0,0,0,0,0,0,0,0,0,0,0,0,0,0,0,0,0,0,0,0,0,0,0,0,0,0,0,0,0,0,0],"id":15,"left_children":[1,3,5,7,9,11,13,15,17,19,21,23,25,27,29,31,33,35,37,-1,39,41,43,45,47,49,51,53,55,57,59,61,63,65,67,69,71,73,75,-1,77,-1,-1,79,-1,-1,81,83,-1,-1,85,87,-1,89,91,-1,-1,93,95,97,99,-1,-1,-1,-1,-1,-1,-1,-1,-1,-1,-1,-1,-1,-1,-1,-1,-1,-1,-1,-1,-1,-1,-1,-1,-1,-1,-1,-1,-1,-1,-1,-1,-1,-1,-1,-1,-1,-1,-1,-1],"loss_changes":[2.5237749E0,5.020783E0,7.267105E0,4.154056E0,7.7407455E0,5.6052704E0,4.6358833E0,2.2496436E0,4.424032E0,5.779216E0,3.1559424E0,7.5017333E0,1.9123554E0,3.6482077E0,3.3511147E0,2.4531925E0,5.2142572E0,4.2609386E0,4.6777496E0,0E0,2.8313332E0,1.5968637E0,4.9290113E0,4.6821756E0,1.8850822E0,2.270422E-1,3.9000978E0,3.5767214E0,1.3487139E0,5.7728467E0,6.252202E0,2.1283653E0,3.7802806E0,3.410645E0,1.5179284E0,9.299629E0,3.0610147E0,1.445961E0,3.5919724E0,0E0,6.1826878E0,0E0,0E0,9.0835595E-1,0E0,0E0,2.8620791E0,5.6530557E0,0E0,0E0,1.8141174E0,6.6065294E-1,0E0,3.6164403E0,3.7126336E0,0E0,0E0,9.224632E0,5.702204E0,1.7529268E0,4.437896E0,0E0,0E0,0E0,0E0,0E0,0E0,0E0,0E0,0E0,0E0,0E0,0E0,0E0,0E0,0E0,0E0,0E0,0E0,0E0,0E0,0E0,0E0,0E0,0E0,0E0,0E0,0E0,0E0,0E0,0E0,0E0,0E0,0E0,0E0,0E0,0E0,0E0,0E0,0E0,0E0],"parents":[2147483647,0,0,1,1,2,2,3,3,4,4,5,5,6,6,7,7,8,8,9,9,10,10,11,11,12,12,13,13,14,14,15,15,16,16,17,17,18,18,20,20,21,21,22,22,23,23,24,24,25,25,26,26,27,27,28,28,29,29,30,30,31,31,32,32,33,33,34,34,35,35,36,36,37,37,38,38,40,40,43,43,46,46,47,47,50,50,51,51,53,53,54,54,57,57,58,58,59,59,60,60],"right_children":[2,4,6,8,10,12,14,16,18,20,22,24,26,28,30,32,34,36,38,-1,40,42,44,46,48,50,52,54,56,58,60,62,64,66,68,70,72,74,76,-1,78,-1,-1,80,-1,-1,82,84,-1,-1,86,88,-1,90,92,-1,-1,94,96,98,100,-1,-1,-1,-1,-1,-1,-1,-1,-1,-1,-1,-1,-1,-1,-1,-1,-1,-1,-1,-1,-1,-1,-1,-1,-1,-1,-1,-1,-1,-1,-1,-1,-1,-1,-1,-1,-1,-1,-1,-1],"split_conditions":[-3.8388088E-1,-4.2462486E-1,-8.35611E-2,6.499102E-1,1E0,3.6570445E-1,-4.2243894E-2,5.934015E-1,1E0,-8.359376E-1,-1.9423297E-1,3.2747793E-1,1E0,1E0,1E0,-8.109028E-1,1E0,7.1140504E-1,7.4298346E-1,-1.934771E-1,1E0,3.4243613E-1,9.9561083E-1,-3.4313694E-1,1E0,1E0,-1.122824E-1,1E0,1.457906E-1,1.4100333E-1,1.0639216E-1,3.2747793E-1,-3.8003907E-1,1E0,1E0,-8.728084E-1,1E0,1E0,8.1611246E-1,3.6825757E-2,1E0,1.6945103E-3,-4.3602297E-1,1E0,-3.0424792E-1,-3.6330754E-1,-7.184519E-1,-2.2090505E-1,3.7520447E-1,-5.085323E-1,1E0,1E0,-4.089807E-1,1E0,6.7317855E-1,6.394498E-2,4.613867E-1,3.4908423E-1,3.3745006E-1,1E0,-9.867316E-2,1.5029153E-3,7.553976E-2,-4.9697045E-2,1.304454E-1,-5.2593935E-1,-2.734907E-2,-1.0852731E-1,2.4299037E-1,-8.479005E-3,-6.8673766E-1,1.1235013E-1,-4.098569E-2,-7.6332614E-3,2.4061313E-1,-1.6382205E-1,7.6924115E-2,5.7690084E-1,-1.1677282E-2,2.5247648E-1,-2.7292812E-2,-2.768067E-1,-5.2246403E-2,-3.2070887E-1,3.4615266E-1,2.8178124E-2,-3.7134045E-1,1.7297472E-1,-4.594793E-2,-1.677523E-1,3.1502432E-1,1.049042E-1,-4.47395E-1,2.717528E-1,3.976159E-4,-1.5075254E-1,9.645277E-3,-3.503268E-1,-8.818124E-2,2.411141E-1,-3.335679E-2],"split_indices":[3,3,7,6,11,6,7,6,10,6,7,6,16,14,14,7,24,6,6,0,4,6,6,3,10,8,7,16,3,7,7,6,7,18,1,3,28,5,6,0,29,0,0,2,0,0,7,3,0,0,1,14,0,8,6,0,0,6,6,16,3,0,0,0,0,0,0,0,0,0,0,0,0,0,0,0,0,0,0,0,0,0,0,0,0,0,0,0,0,0,0,0,0,0,0,0,0,0,0,0,0],"split_type":[0,0,0,0,0,0,0,0,0,0,0,0,0,0,0,0,0,0,0,0,0,0,0,0,0,0,0,0,0,0,0,0,0,0,0,0,0,0,0,0,0,0,0,0,0,0,0,0,0,0,0,0,0,0,0,0,0,0,0,0,0,0,0,0,0,0,0,0,0,0,0,0,0,0,0,0,0,0,0,0,0,0,0,0,0,0,0,0,0,0,0,0,0,0,0,0,0,0,0,0,0],"sum_hessian":[1.2253169E3,6.65306E2,5.600108E2,6.448145E2,2.0491571E1,1.02747345E2,4.5726346E2,5.1417993E2,1.3063455E2,1.15274935E1,8.964078E0,9.261457E1,1.0132774E1,1.1952161E1,4.4531128E2,5.0669644E2,7.483506E0,5.4170044E1,7.646451E1,1.2298908E0,1.0297603E1,2.3757975E0,6.5882807E0,8.699853E1,5.616047E0,5.377051E0,4.755723E0,7.6420197E0,4.3101416E0,2.8501852E2,1.6029277E2,3.5899176E2,1.4770467E2,4.4921584E0,2.9913476E0,8.009776E0,4.6160267E1,2.148095E1,5.498356E1,2.028257E0,8.269346E0,1.1097331E0,1.2660644E0,5.090282E0,1.4979985E0,4.2143373E0,8.278419E1,2.5909858E0,3.0250611E0,2.3808954E0,2.9961555E0,3.341258E0,1.4144651E0,4.8520117E0,2.790008E0,1.4098997E0,2.9002416E0,4.5805542E1,2.3921298E2,1.0692739E1,1.4960002E2,3.2076746E2,3.82243E1,1.3731355E2,1.0391118E1,2.3557048E0,2.1364536E0,1.0375528E0,1.9537947E0,6.463666E0,1.5461098E0,1.9286999E1,2.6873268E1,2.2909188E0,1.9190031E1,5.3237734E0,4.9659786E1,6.2567453E0,2.012601E0,3.9995492E0,1.0907329E0,4.5631447E0,7.822104E1,1.2055877E0,1.385398E0,1.5193685E0,1.476787E0,1.5944021E0,1.746856E0,1.2684875E0,3.583524E0,1.5547991E0,1.2352091E0,1.7941477E1,2.7864063E1,2.0944944E1,2.1826805E2,5.952324E0,4.7404146E0,4.50937E0,1.4509065E2],"tree_param":{"num_deleted":"0","num_feature":"30","num_nodes":"101","size_leaf_vector":"1"}},{"base_weights":[-5.888526E-3,1.495944E-2,-7.465931E-2,3.0146893E-2,-1.4459176E-1,-1.401009E-2,-3.1868678E-1,8.47426E-3,3.1268215E-1,-2.506264E-1,-1.0329051E-1,3.5285452E-1,-5.4903205E-2,-4.484016E-1,1.9242153E-1,2.1347307E-2,-5.263984E-1,-6.2472492E-2,6.587797E-1,5.202534E-1,-1.7171678E-1,2.187317E-3,9.6262234E-1,-8.561607E-1,1.1046149E-2,-2.685593E-1,-3.6022308E-1,1.1062539E0,-5.80836E-1,4.201069E-2,-1.6568328E-1,-1.3648776E0,-2.1422379E-1,-9.446097E-1,2.9231155E-1,4.035662E-2,1.042392E0,8.243534E-1,-1.8343283E-1,-4.1204378E-1,1.4595366E-2,-4.614187E-1,5.9689194E-1,-3.5893776E-2,1.2438176E0,-3.4973893E-1,-3.8512897E-1,-4.102621E-3,7.8156626E-1,1.7994983E-1,-5.9765315E-1,5.9121046E-2,4.0635923E-1,-7.6079655E-1,7.6544166E-2,6.0728546E-3,7.616747E-2,-6.509593E-2,3.0387926E-1,-8.425665E-2,-4.8592603E-1,-3.2741493E-1,-5.1630167E-3,-3.5732362E-1,-1.3247035E-1,2.524713E-1,-3.455167E-2,3.0587208E-1,-6.378435E-2,4.0040404E-1,9.78521E-2,3.5154265E-1,-6.926152E-2,-1.906038E-2,-2.103395E-1,-1.0267674E-1,7.4173324E-2,1.7252089E-1,-2.4009092E-1,2.957527E-1,-2.4736248E-1,4.5683092E-1,1.1303697E-1,1.3060945E-1,-2.0620836E-1,8.438137E-3,-2.5913906E-1,3.6327845E-1,3.8283646E-2,-4.4472024E-2,3.3773673E-1,2.1664594E-1,-2.103081E-1,-3.922167E-2,-2.8557548E-1],"categories":[],"categories_nodes":[],"categories_segments":[],"categories_sizes":[],"default_left":[0,0,0,0,0,0,0,0,0,0,0,0,0,0,0,0,0,0,0,0,0,0,0,0,0,0,0,0,0,0,0,0,0,0,0,0,0,0,0,0,0,0,0,0,0,0,0,0,0,0,0,0,0,0,0,0,0,0,0,0,0,0,0,0,0,0,0,0,0,0,0,0,0,0,0,0,0,0,0,0,0,0,0,0,0,0,0,0,0,0,0,0,0,0,0],"id":16,"left_children":[1,3,5,7,9,11,13,15,17,-1,19,21,23,25,27,29,31,33,35,37,39,41,43,45,47,49,-1,51,53,55,57,59,61,63,65,67,69,71,-1,73,75,77,79,-1,81,83,-1,85,87,89,91,-1,-1,93,-1,-1,-1,-1,-1,-1,-1,-1,-1,-1,-1,-1,-1,-1,-1,-1,-1,-1,-1,-1,-1,-1,-1,-1,-1,-1,-1,-1,-1,-1,-1,-1,-1,-1,-1,-1,-1,-1,-1,-1,-1],"loss_changes":[1.7395856E0,2.261081E0,4.1727314E0,5.209427E0,2.228158E0,3.426445E0,3.8080897E0,5.461591E0,7.911197E0,0E0,3.4037936E0,4.8967295E0,1.0852395E1,5.7762117E0,9.16659E0,2.9979715E0,4.5873218E0,9.664879E0,7.4579296E0,3.2330992E0,3.1740177E0,4.5620832E0,2.6938024E0,2.9329052E0,2.227698E0,5.667168E0,0E0,1.0588169E0,1.275773E0,3.212939E0,4.887852E0,8.9105415E-1,2.5338178E0,5.701914E-1,5.0562415E0,3.472539E0,3.6407623E0,2.7183204E0,0E0,3.0718098E0,3.4736145E0,3.7271707E0,4.819444E0,0E0,1.052908E0,2.5587382E0,0E0,5.2304873E0,8.7869525E-1,5.353795E0,3.5018911E0,0E0,0E0,6.1820555E-1,0E0,0E0,0E0,0E0,0E0,0E0,0E0,0E0,0E0,0E0,0E0,0E0,0E0,0E0,0E0,0E0,0E0,0E0,0E0,0E0,0E0,0E0,0E0,0E0,0E0,0E0,0E0,0E0,0E0,0E0,0E0,0E0,0E0,0E0,0E0,0E0,0E0,0E0,0E0,0E0,0E0],"parents":[2147483647,0,0,1,1,2,2,3,3,4,4,5,5,6,6,7,7,8,8,10,10,11,11,12,12,13,13,14,14,15,15,16,16,17,17,18,18,19,19,20,20,21,21,22,22,23,23,24,24,25,25,27,27,28,28,29,29,30,30,31,31,32,32,33,33,34,34,35,35,36,36,37,37,39,39,40,40,41,41,42,42,44,44,45,45,47,47,48,48,49,49,50,50,53,53],"right_children":[2,4,6,8,10,12,14,16,18,-1,20,22,24,26,28,30,32,34,36,38,40,42,44,46,48,50,-1,52,54,56,58,60,62,64,66,68,70,72,-1,74,76,78,80,-1,82,84,-1,86,88,90,92,-1,-1,94,-1,-1,-1,-1,-1,-1,-1,-1,-1,-1,-1,-1,-1,-1,-1,-1,-1,-1,-1,-1,-1,-1,-1,-1,-1,-1,-1,-1,-1,-1,-1,-1,-1,-1,-1,-1,-1,-1,-1,-1,-1],"split_conditions":[1E0,1.1236457E0,1E0,8.38438E-1,-6.315089E-1,-1.4874502E0,1.3273655E0,1.1497344E0,1E0,-2.506264E-1,1.8454403E-1,1E0,-1.3146E0,7.5695E-1,1.4495974E0,1E0,1.2748306E0,1E0,1E0,1E0,1.2931128E0,-1.4974225E0,-1.5090566E0,1E0,2.4002361E0,1E0,-3.6022308E-1,1E0,1E0,1.0737259E0,1.1096303E0,1.1036422E0,5.939742E-1,1E0,9.1992587E-1,-4.1778266E-1,1E0,1E0,-1.8343283E-1,1E0,1E0,-9.987383E-1,1E0,-3.5893776E-2,-1.4957604E0,-9.9659854E-1,-3.8512897E-1,1.4493428E0,2.4558918E0,3.071545E-1,-9.8532623E-1,5.9121046E-2,4.0635923E-1,1E0,7.6544166E-2,6.0728546E-3,7.616747E-2,-6.509593E-2,3.0387926E-1,-8.425665E-2,-4.8592603E-1,-3.2741493E-1,-5.1630167E-3,-3.5732362E-1,-1.3247035E-1,2.524713E-1,-3.455167E-2,3.0587208E-1,-6.378435E-2,4.0040404E-1,9.78521E-2,3.5154265E-1,-6.926152E-2,-1.906038E-2,-2.103395E-1,-1.0267674E-1,7.4173324E-2,1.7252089E-1,-2.4009092E-1,2.957527E-1,-2.4736248E-1,4.5683092E-1,1.1303697E-1,1.3060945E-1,-2.0620836E-1,8.438137E-3,-2.5913906E-1,3.6327845E-1,3.8283646E-2,-4.4472024E-2,3.3773673E-1,2.1664594E-1,-2.103081E-1,-3.922167E-2,-2.8557548E-1],"split_indices":[2,3,27,3,6,6,3,7,8,0,6,5,6,3,3,25,6,22,1,25,6,6,6,8,7,5,0,24,0,6,7,6,3,28,3,7,0,8,0,18,8,7,28,0,6,7,0,6,7,7,7,0,0,16,0,0,0,0,0,0,0,0,0,0,0,0,0,0,0,0,0,0,0,0,0,0,0,0,0,0,0,0,0,0,0,0,0,0,0,0,0,0,0,0,0],"split_type":[0,0,0,0,0,0,0,0,0,0,0,0,0,0,0,0,0,0,0,0,0,0,0,0,0,0,0,0,0,0,0,0,0,0,0,0,0,0,0,0,0,0,0,0,0,0,0,0,0,0,0,0,0,0,0,0,0,0,0,0,0,0,0,0,0,0,0,0,0,0,0,0,0,0,0,0,0,0,0,0,0,0,0,0,0,0,0,0,0,0,0,0,0,0,0],"sum_hessian":[1.2115488E3,9.3030725E2,2.8124155E2,8.5018994E2,8.011733E1,2.2610428E2,5.5137276E1,7.905766E2,5.961333E1,3.434941E0,7.668239E1,2.1910429E1,2.0419385E2,4.407429E1,1.1062983E1,7.729341E2,1.7642502E1,2.8999083E1,3.0614246E1,6.9298687E0,6.9752525E1,1.4547813E1,7.3626156E0,1.4617321E1,1.8957652E2,3.66664E1,7.4078927E0,4.873207E0,6.1897755E0,6.9673346E2,7.620064E1,3.8715713E0,1.3770929E1,7.840908E0,2.1158175E1,1.2143255E1,1.8470991E1,5.676188E0,1.253681E0,2.9931643E1,3.982088E1,8.300906E0,6.2469068E0,1.6369207E0,5.7256947E0,7.524156E0,7.0931654E0,1.8689673E2,2.679798E0,1.5709598E1,2.0956802E1,1.4300716E0,3.4431355E0,5.1673484E0,1.0224273E0,6.3281586E2,6.391758E1,7.380397E1,2.396669E0,1.13713E0,2.7344413E0,1.6931098E0,1.207782E1,4.344525E0,3.4963837E0,8.557705E0,1.260047E1,1.8708916E0,1.0272364E1,1.2504433E1,5.9665585E0,4.1870346E0,1.489153E0,1.412412E1,1.5807522E1,1.5529566E1,2.4291313E1,1.8735739E0,6.4273324E0,5.1454024E0,1.1015042E0,3.7597463E0,1.9659483E0,2.1755795E0,5.3485765E0,1.8107553E2,5.8211985E0,1.1035478E0,1.5762502E0,1.228885E1,3.420748E0,1.0874282E0,1.9869375E1,1.5946004E0,3.5727477E0],"tree_param":{"num_deleted":"0","num_feature":"30","num_nodes":"95","size_leaf_vector":"1"}},{"base_weights":[-5.6452425E-3,-8.5974124E-4,-2.9478386E-1,-3.7955236E-1,2.20588E-3,-3.8896778E-1,2.6207408E-1,6.5941964E-3,-3.3679596E-1,5.3137624E-1,-4.2413366E-3,-2.2455978E-1,-2.624004E-1,9.6804164E-2,2.7607108E-2,-2.4943244E-1,3.8409853E-1,-1.1923154E-1,9.7178906E-1,-2.5881582E-1,2.0304716E-3,4.1711975E-2,-5.3338253E-1,-2.4340463E-1,3.3306092E-1,-3.762244E-1,5.401781E-1,1.261344E0,2.881958E-1,-1.416157E-1,-3.0148503E-1,5.206817E-1,-2.446704E-3,-1.8594301E-1,2.4671614E-1,-2.5894982E-1,-2.7996209E-2,7.517851E-2,-2.2239758E-1,2.8156307E-1,-8.369305E-3,4.3543407E-1,7.370183E-2,-2.0623032E-2,1.8822637E-1,1.4909221E-3,-2.624494E-1,-9.705969E-2,2.2051975E-1,-8.21908E-2,1.2137125E-3,1.2438921E-1,-8.931564E-2,1.7994769E-1,-1.9008608E-1],"categories":[],"categories_nodes":[],"categories_segments":[],"categories_sizes":[],"default_left":[0,0,0,0,0,0,0,0,0,0,0,0,0,0,0,0,0,0,0,0,0,0,0,0,0,0,0,0,0,0,0,0,0,0,0,0,0,0,0,0,0,0,0,0,0,0,0,0,0,0,0,0,0,0,0],"id":17,"left_children":[1,3,5,7,9,11,13,15,-1,17,19,21,-1,-1,-1,-1,23,25,27,29,31,33,35,37,-1,-1,39,41,43,45,-1,47,49,-1,51,-1,53,-1,-1,-1,-1,-1,-1,-1,-1,-1,-1,-1,-1,-1,-1,-1,-1,-1,-1],"loss_changes":[1.6584872E0,1.3710575E0,1.1254516E0,2.728723E0,4.0000424E0,1.1686325E0,5.5594146E-3,2.608214E0,0E0,4.1596932E0,1.8505284E0,1.1830878E0,0E0,0E0,0E0,0E0,2.8545897E0,5.607159E0,1.3239393E0,2.2945921E0,2.6294556E0,1.3067467E0,1.0772939E0,1.13591E0,0E0,0E0,1.1272656E0,7.425194E-1,5.0721323E-1,2.7179954E0,0E0,1.9918051E0,1.9809941E0,0E0,7.826216E-1,0E0,1.7652558E0,0E0,0E0,0E0,0E0,0E0,0E0,0E0,0E0,0E0,0E0,0E0,0E0,0E0,0E0,0E0,0E0,0E0,0E0],"parents":[2147483647,0,0,1,1,2,2,3,3,4,4,5,5,6,6,7,7,9,9,10,10,11,11,16,16,17,17,18,18,19,19,20,20,21,21,22,22,23,23,26,26,27,27,28,28,29,29,31,31,32,32,34,34,36,36],"right_children":[2,4,6,8,10,12,14,16,-1,18,20,22,-1,-1,-1,-1,24,26,28,30,32,34,36,38,-1,-1,40,42,44,46,-1,48,50,-1,52,-1,54,-1,-1,-1,-1,-1,-1,-1,-1,-1,-1,-1,-1,-1,-1,-1,-1,-1,-1],"split_conditions":[1.5718292E0,-1.5140426E0,2.5705786E0,-1.5173666E0,-1.5073946E0,1E0,1E0,1E0,-3.3679596E-1,1E0,-1.4974225E0,1E0,-2.624004E-1,9.6804164E-2,2.7607108E-2,-2.4943244E-1,-9.5429635E-1,-8.728084E-1,-9.950403E-1,1E0,-1.4940984E0,1E0,1.4277366E0,-1.2395041E0,3.3306092E-1,-3.762244E-1,-6.690886E-1,-1.5090566E0,5.124863E-1,1E0,-3.0148503E-1,-9.98628E-1,-1.4857882E0,-1.8594301E-1,1.3462975E0,-2.5894982E-1,2.4002361E0,7.517851E-2,-2.2239758E-1,2.8156307E-1,-8.369305E-3,4.3543407E-1,7.370183E-2,-2.0623032E-2,1.8822637E-1,1.4909221E-3,-2.624494E-1,-9.705969E-2,2.2051975E-1,-8.21908E-2,1.2137125E-3,1.2438921E-1,-8.931564E-2,1.7994769E-1,-1.9008608E-1],"split_indices":[3,6,7,6,6,25,8,29,0,8,6,20,0,0,0,0,3,3,3,27,6,22,6,3,0,0,3,6,3,25,0,7,6,0,6,0,7,0,0,0,0,0,0,0,0,0,0,0,0,0,0,0,0,0,0],"split_type":[0,0,0,0,0,0,0,0,0,0,0,0,0,0,0,0,0,0,0,0,0,0,0,0,0,0,0,0,0,0,0,0,0,0,0,0,0,0,0,0,0,0,0,0,0,0,0,0,0,0,0,0,0,0,0],